<?xml version="1.0"?>
<opencv_storage>
<cascade>
  <stageType>BOOST</stageType>
  <featureType>HOG</featureType>
  <height>24</height>
  <width>32</width>
  <stageParams>
    <boostType>GAB</boostType>
    <minHitRate>9.9500000476837158e-01</minHitRate>
    <maxFalseAlarm>5.0000000000000000e-01</maxFalseAlarm>
    <weightTrimRate>9.4999999999999996e-01</weightTrimRate>
    <maxDepth>1</maxDepth>
    <maxWeakCount>100</maxWeakCount></stageParams>
  <featureParams>
    <maxCatCount>0</maxCatCount>
    <featSize>36</featSize></featureParams>
  <stageNum>12</stageNum>
  <stages>
    <!-- stage 0 -->
    <_>
      <maxWeakCount>2</maxWeakCount>
      <stageThreshold>-4.8268463462591171e-02</stageThreshold>
      <weakClassifiers>
        <_>
          <internalNodes>
            0 -1 9 1.1371379718184471e-02</internalNodes>
          <leafValues>
            9.1304349899291992e-01 -9.7986578941345215e-01</leafValues></_>
        <_>
          <internalNodes>
            0 -1 22 7.4420245364308357e-03</internalNodes>
          <leafValues>
            9.5571279525756836e-01 -9.6131193637847900e-01</leafValues></_></weakClassifiers></_>
    <!-- stage 1 -->
    <_>
      <maxWeakCount>5</maxWeakCount>
      <stageThreshold>-1.7146987915039063e+00</stageThreshold>
      <weakClassifiers>
        <_>
          <internalNodes>
            0 -1 7 9.6369817852973938e-02</internalNodes>
          <leafValues>
            -8.5526317358016968e-01 6.6972476243972778e-01</leafValues></_>
        <_>
          <internalNodes>
            0 -1 6 5.5350862443447113e-02</internalNodes>
          <leafValues>
            -7.2724282741546631e-01 4.9714508652687073e-01</leafValues></_>
        <_>
          <internalNodes>
            0 -1 29 3.2707408070564270e-02</internalNodes>
          <leafValues>
            -6.9067800045013428e-01 3.5666033625602722e-01</leafValues></_>
        <_>
          <internalNodes>
            0 -1 0 1.1149004101753235e-02</internalNodes>
          <leafValues>
            3.0977270007133484e-01 -7.9713231325149536e-01</leafValues></_>
        <_>
          <internalNodes>
            0 -1 28 4.6979397535324097e-02</internalNodes>
          <leafValues>
            2.4871243536472321e-01 -9.3135809898376465e-01</leafValues></_></weakClassifiers></_>
    <!-- stage 2 -->
    <_>
      <maxWeakCount>3</maxWeakCount>
      <stageThreshold>-1.1314772367477417e+00</stageThreshold>
      <weakClassifiers>
        <_>
          <internalNodes>
            0 -1 18 7.4425041675567627e-02</internalNodes>
          <leafValues>
            -9.2413794994354248e-01 6.5853661298751831e-01</leafValues></_>
        <_>
          <internalNodes>
            0 -1 17 5.3775016218423843e-02</internalNodes>
          <leafValues>
            -5.8342730998992920e-01 5.5374807119369507e-01</leafValues></_>
        <_>
          <internalNodes>
            0 -1 8 4.5527227222919464e-02</internalNodes>
          <leafValues>
            -7.6108735799789429e-01 5.0938385725021362e-01</leafValues></_></weakClassifiers></_>
    <!-- stage 3 -->
    <_>
      <maxWeakCount>3</maxWeakCount>
      <stageThreshold>-1.1483296155929565e+00</stageThreshold>
      <weakClassifiers>
        <_>
          <internalNodes>
            0 -1 33 7.3445923626422882e-02</internalNodes>
          <leafValues>
            -8.8356167078018188e-01 5.8677685260772705e-01</leafValues></_>
        <_>
          <internalNodes>
            0 -1 32 7.0380941033363342e-02</internalNodes>
          <leafValues>
            -6.0157400369644165e-01 7.0534002780914307e-01</leafValues></_>
        <_>
          <internalNodes>
            0 -1 20 1.2579312548041344e-02</internalNodes>
          <leafValues>
            3.3680608868598938e-01 -9.8990440368652344e-01</leafValues></_></weakClassifiers></_>
    <!-- stage 4 -->
    <_>
      <maxWeakCount>6</maxWeakCount>
      <stageThreshold>-1.0786329507827759e+00</stageThreshold>
      <weakClassifiers>
        <_>
          <internalNodes>
            0 -1 14 6.0907743871212006e-02</internalNodes>
          <leafValues>
            -9.0441179275512695e-01 4.1843971610069275e-01</leafValues></_>
        <_>
          <internalNodes>
            0 -1 30 5.3016901016235352e-02</internalNodes>
          <leafValues>
            -7.6082831621170044e-01 5.8463674783706665e-01</leafValues></_>
        <_>
          <internalNodes>
            0 -1 43 1.8732663244009018e-02</internalNodes>
          <leafValues>
            -9.2891603708267212e-01 2.9660069942474365e-01</leafValues></_>
        <_>
          <internalNodes>
            0 -1 42 4.8275195062160492e-02</internalNodes>
          <leafValues>
            -3.7181153893470764e-01 8.5539048910140991e-01</leafValues></_>
        <_>
          <internalNodes>
            0 -1 40 1.5624983236193657e-02</internalNodes>
          <leafValues>
            9.5840501785278320e-01 -2.4900251626968384e-01</leafValues></_>
        <_>
          <internalNodes>
            0 -1 8 9.8546855151653290e-02</internalNodes>
          <leafValues>
            -2.8875824809074402e-01 9.1082042455673218e-01</leafValues></_></weakClassifiers></_>
    <!-- stage 5 -->
    <_>
      <maxWeakCount>4</maxWeakCount>
      <stageThreshold>-1.9584615230560303e+00</stageThreshold>
      <weakClassifiers>
        <_>
          <internalNodes>
            0 -1 31 5.2839860320091248e-02</internalNodes>
          <leafValues>
            -7.6729559898376465e-01 6.0000002384185791e-01</leafValues></_>
        <_>
          <internalNodes>
            0 -1 25 6.3046991825103760e-02</internalNodes>
          <leafValues>
            -7.0358413457870483e-01 4.4747546315193176e-01</leafValues></_>
        <_>
          <internalNodes>
            0 -1 3 1.2446012347936630e-02</internalNodes>
          <leafValues>
            3.2952207326889038e-01 -8.5601693391799927e-01</leafValues></_>
        <_>
          <internalNodes>
            0 -1 36 5.0687201321125031e-02</internalNodes>
          <leafValues>
            3.6843505501747131e-01 -8.4992605447769165e-01</leafValues></_></weakClassifiers></_>
    <!-- stage 6 -->
    <_>
      <maxWeakCount>4</maxWeakCount>
      <stageThreshold>-1.2753176689147949e+00</stageThreshold>
      <weakClassifiers>
        <_>
          <internalNodes>
            0 -1 13 3.6042802035808563e-02</internalNodes>
          <leafValues>
            -8.9915966987609863e-01 1.5428571403026581e-01</leafValues></_>
        <_>
          <internalNodes>
            0 -1 38 7.0154988206923008e-03</internalNodes>
          <leafValues>
            2.8604927659034729e-01 -8.2338249683380127e-01</leafValues></_>
        <_>
          <internalNodes>
            0 -1 44 3.7337900139391422e-03</internalNodes>
          <leafValues>
            -8.6691707372665405e-01 2.6036527752876282e-01</leafValues></_>
        <_>
          <internalNodes>
            0 -1 26 4.3322920799255371e-02</internalNodes>
          <leafValues>
            3.2199105620384216e-01 -8.6658608913421631e-01</leafValues></_></weakClassifiers></_>
    <!-- stage 7 -->
    <_>
      <maxWeakCount>3</maxWeakCount>
      <stageThreshold>-1.2464321851730347e+00</stageThreshold>
      <weakClassifiers>
        <_>
          <internalNodes>
            0 -1 7 1.0242227464914322e-01</internalNodes>
          <leafValues>
            -8.0377358198165894e-01 1.7567567527294159e-01</leafValues></_>
        <_>
          <internalNodes>
            0 -1 5 3.3445514272898436e-03</internalNodes>
          <leafValues>
            -9.8339736461639404e-01 2.4196763336658478e-01</leafValues></_>
        <_>
          <internalNodes>
            0 -1 45 5.9087835252285004e-02</internalNodes>
          <leafValues>
            -6.8462622165679932e-01 4.0967187285423279e-01</leafValues></_></weakClassifiers></_>
    <!-- stage 8 -->
    <_>
      <maxWeakCount>6</maxWeakCount>
      <stageThreshold>-1.5639966726303101e+00</stageThreshold>
      <weakClassifiers>
        <_>
          <internalNodes>
            0 -1 39 3.7554237060248852e-03</internalNodes>
          <leafValues>
            3.4722220897674561e-01 -8.8104087114334106e-01</leafValues></_>
        <_>
          <internalNodes>
            0 -1 27 6.2023710459470749e-02</internalNodes>
          <leafValues>
            -5.4774647951126099e-01 5.5160629749298096e-01</leafValues></_>
        <_>
          <internalNodes>
            0 -1 1 1.4059281907975674e-02</internalNodes>
          <leafValues>
            -1. 2.0473571121692657e-01</leafValues></_>
        <_>
          <internalNodes>
            0 -1 21 7.6514636166393757e-03</internalNodes>
          <leafValues>
            2.8561156988143921e-01 -7.1902972459793091e-01</leafValues></_>
        <_>
          <internalNodes>
            0 -1 10 2.2228274494409561e-02</internalNodes>
          <leafValues>
            2.0455715060234070e-01 -9.2182087898254395e-01</leafValues></_>
        <_>
          <internalNodes>
            0 -1 35 6.0786820948123932e-02</internalNodes>
          <leafValues>
            1.7452755570411682e-01 -1.</leafValues></_></weakClassifiers></_>
    <!-- stage 9 -->
    <_>
      <maxWeakCount>4</maxWeakCount>
      <stageThreshold>-1.1254550218582153e+00</stageThreshold>
      <weakClassifiers>
        <_>
          <internalNodes>
            0 -1 19 4.7190867364406586e-02</internalNodes>
          <leafValues>
            -8.7832701206207275e-01 2.9333332180976868e-01</leafValues></_>
        <_>
          <internalNodes>
            0 -1 37 1.3790097087621689e-02</internalNodes>
          <leafValues>
            2.7515822649002075e-01 -8.0888223648071289e-01</leafValues></_>
        <_>
          <internalNodes>
            0 -1 15 3.7916660308837891e-02</internalNodes>
          <leafValues>
            -7.7383506298065186e-01 3.7008470296859741e-01</leafValues></_>
        <_>
          <internalNodes>
            0 -1 46 1.5986310318112373e-02</internalNodes>
          <leafValues>
            2.5154885649681091e-01 -1.</leafValues></_></weakClassifiers></_>
    <!-- stage 10 -->
    <_>
      <maxWeakCount>6</maxWeakCount>
      <stageThreshold>-1.3221836090087891e+00</stageThreshold>
      <weakClassifiers>
        <_>
          <internalNodes>
            0 -1 31 5.0194669514894485e-02</internalNodes>
          <leafValues>
            -7.6666665077209473e-01 3.8053098320960999e-01</leafValues></_>
        <_>
          <internalNodes>
            0 -1 23 5.4125115275382996e-02</internalNodes>
          <leafValues>
            -7.5982230901718140e-01 4.3285301327705383e-01</leafValues></_>
        <_>
          <internalNodes>
            0 -1 4 3.1019558082334697e-04</internalNodes>
          <leafValues>
            -8.5103613138198853e-01 1.8881297111511230e-01</leafValues></_>
        <_>
          <internalNodes>
            0 -1 34 4.4525854289531708e-02</internalNodes>
          <leafValues>
            -4.7191706299781799e-01 4.9266901612281799e-01</leafValues></_>
        <_>
          <internalNodes>
            0 -1 16 4.2869863100349903e-03</internalNodes>
          <leafValues>
            -7.6391607522964478e-01 1.9794267416000366e-01</leafValues></_>
        <_>
          <internalNodes>
            0 -1 2 1.7234738916158676e-02</internalNodes>
          <leafValues>
            2.8946679830551147e-01 -8.3194738626480103e-01</leafValues></_></weakClassifiers></_>
    <!-- stage 11 -->
    <_>
      <maxWeakCount>6</maxWeakCount>
      <stageThreshold>-1.6850101947784424e+00</stageThreshold>
      <weakClassifiers>
        <_>
          <internalNodes>
            0 -1 11 8.4112122654914856e-02</internalNodes>
          <leafValues>
            -8.8721805810928345e-01 3.3333334326744080e-01</leafValues></_>
        <_>
          <internalNodes>
            0 -1 18 7.4049524962902069e-02</internalNodes>
          <leafValues>
            -7.1057516336441040e-01 3.1591024994850159e-01</leafValues></_>
        <_>
          <internalNodes>
            0 -1 41 6.0234628617763519e-03</internalNodes>
          <leafValues>
            -7.6083099842071533e-01 2.1909777820110321e-01</leafValues></_>
        <_>
          <internalNodes>
            0 -1 24 1.9521825015544891e-02</internalNodes>
          <leafValues>
            2.9233506321907043e-01 -7.0849871635437012e-01</leafValues></_>
        <_>
          <internalNodes>
            0 -1 6 1.2131832540035248e-02</internalNodes>
          <leafValues>
            -1. 1.9775043427944183e-01</leafValues></_>
        <_>
          <internalNodes>
            0 -1 12 1.8656220287084579e-02</internalNodes>
          <leafValues>
            -8.2041877508163452e-01 2.0443353056907654e-01</leafValues></_></weakClassifiers></_></stages>
  <features>
    <_>
      <rect>
        0 0 8 8 2</rect></_>
    <_>
      <rect>
        0 0 8 8 5</rect></_>
    <_>
      <rect>
        0 0 8 8 7</rect></_>
    <_>
      <rect>
        0 0 8 8 8</rect></_>
    <_>
      <rect>
        0 0 8 8 9</rect></_>
    <_>
      <rect>
        0 0 8 8 12</rect></_>
    <_>
      <rect>
        0 0 8 8 14</rect></_>
    <_>
      <rect>
        0 0 8 8 22</rect></_>
    <_>
      <rect>
        0 0 8 8 32</rect></_>
    <_>
      <rect>
        0 4 8 8 2</rect></_>
    <_>
      <rect>
        0 4 8 8 3</rect></_>
    <_>
      <rect>
        0 4 8 8 31</rect></_>
    <_>
      <rect>
        0 8 8 8 29</rect></_>
    <_>
      <rect>
        4 0 8 8 5</rect></_>
    <_>
      <rect>
        4 0 8 8 14</rect></_>
    <_>
      <rect>
        4 0 8 8 32</rect></_>
    <_>
      <rect>
        4 4 8 8 25</rect></_>
    <_>
      <rect>
        4 8 8 8 12</rect></_>
    <_>
      <rect>
        4 8 8 8 30</rect></_>
    <_>
      <rect>
        8 0 8 8 14</rect></_>
    <_>
      <rect>
        8 0 8 8 17</rect></_>
    <_>
      <rect>
        8 8 8 8 17</rect></_>
    <_>
      <rect>
        12 0 8 8 1</rect></_>
    <_>
      <rect>
        12 0 8 8 5</rect></_>
    <_>
      <rect>
        12 4 8 8 15</rect></_>
    <_>
      <rect>
        12 8 8 8 30</rect></_>
    <_>
      <rect>
        16 0 8 8 13</rect></_>
    <_>
      <rect>
        16 0 8 8 28</rect></_>
    <_>
      <rect>
        16 4 8 8 12</rect></_>
    <_>
      <rect>
        16 4 8 8 21</rect></_>
    <_>
      <rect>
        16 4 8 8 29</rect></_>
    <_>
      <rect>
        16 8 8 8 10</rect></_>
    <_>
      <rect>
        16 8 8 8 11</rect></_>
    <_>
      <rect>
        16 8 8 8 21</rect></_>
    <_>
      <rect>
        16 8 8 8 29</rect></_>
    <_>
      <rect>
        16 8 8 8 31</rect></_>
    <_>
      <rect>
        0 0 16 8 4</rect></_>
    <_>
      <rect>
        0 0 16 8 7</rect></_>
    <_>
      <rect>
        0 0 16 8 8</rect></_>
    <_>
      <rect>
        0 4 16 8 8</rect></_>
    <_>
      <rect>
        0 4 16 8 22</rect></_>
    <_>
      <rect>
        0 4 16 8 25</rect></_>
    <_>
      <rect>
        0 8 16 8 10</rect></_>
    <_>
      <rect>
        0 8 16 8 20</rect></_>
    <_>
      <rect>
        0 8 16 8 25</rect></_>
    <_>
      <rect>
        0 8 16 8 30</rect></_>
    <_>
      <rect>
        0 8 16 8 35</rect></_></features></cascade>
</opencv_storage>
