<?xml version="1.0"?>
<opencv_storage>
<cascade>
  <stageType>BOOST</stageType>
  <featureType>LBP</featureType>
  <height>24</height>
  <width>32</width>
  <stageParams>
    <boostType>GAB</boostType>
    <minHitRate>9.9500000476837158e-01</minHitRate>
    <maxFalseAlarm>5.0000000000000000e-01</maxFalseAlarm>
    <weightTrimRate>9.4999999999999996e-01</weightTrimRate>
    <maxDepth>1</maxDepth>
    <maxWeakCount>100</maxWeakCount></stageParams>
  <featureParams>
    <maxCatCount>256</maxCatCount>
    <featSize>1</featSize></featureParams>
  <stageNum>20</stageNum>
  <stages>
    <!-- stage 0 -->
    <_>
      <maxWeakCount>8</maxWeakCount>
      <stageThreshold>-9.5032155513763428e-01</stageThreshold>
      <weakClassifiers>
        <_>
          <internalNodes>
            0 -1 156 -1300894809 2546150 -1072691066 -1968104184
            1210255120 17846577 1487506576 1171776305</internalNodes>
          <leafValues>
            -5.0446426868438721e-01 3.5183349251747131e-01</leafValues></_>
        <_>
          <internalNodes>
            0 -1 142 780230679 1747370336 -1006509284 -1609136470
            1696138279 1503574016 -88268432 -299573440</internalNodes>
          <leafValues>
            -4.6011221408843994e-01 3.6626675724983215e-01</leafValues></_>
        <_>
          <internalNodes>
            0 -1 10 -263462760 612422083 604066008 4645446 906723448
            44269701 184762403 -488642875</internalNodes>
          <leafValues>
            -4.9113795161247253e-01 3.5690802335739136e-01</leafValues></_>
        <_>
          <internalNodes>
            0 -1 66 -1433460953 550408504 -1293659773 -2070781690
            1629489669 1291987335 1575627028 -2134969536</internalNodes>
          <leafValues>
            -4.6980199217796326e-01 4.1576313972473145e-01</leafValues></_>
        <_>
          <internalNodes>
            0 -1 167 -285241497 586079834 -16777350 784121595 670252887
            524222399 -1128771740 -122444459</internalNodes>
          <leafValues>
            -3.9626944065093994e-01 4.7994887828826904e-01</leafValues></_>
        <_>
          <internalNodes>
            0 -1 157 -1538820747 -2117283257 -1686026960 -532965292
            1955204205 1057670186 -184350399 -1441395999</internalNodes>
          <leafValues>
            -4.4877898693084717e-01 4.6749499440193176e-01</leafValues></_>
        <_>
          <internalNodes>
            0 -1 13 1865407267 -827930821 -32895 -353977090 -18913849
            879714302 1878291970 -260979659</internalNodes>
          <leafValues>
            -4.0670129656791687e-01 5.4630732536315918e-01</leafValues></_>
        <_>
          <internalNodes>
            0 -1 127 1056911295 -1901961361 1811898274 -890315145
            -1645472399 -621295753 -1569307372 -738199820</internalNodes>
          <leafValues>
            -4.3040779232978821e-01 5.0386619567871094e-01</leafValues></_></weakClassifiers></_>
    <!-- stage 1 -->
    <_>
      <maxWeakCount>8</maxWeakCount>
      <stageThreshold>-6.3958293199539185e-01</stageThreshold>
      <weakClassifiers>
        <_>
          <internalNodes>
            0 -1 60 -595652797 179072973 -1073784978 -1468596254
            184501629 1073279999 -235350860 -269041801</internalNodes>
          <leafValues>
            -2.4137930572032928e-01 5.0387597084045410e-01</leafValues></_>
        <_>
          <internalNodes>
            0 -1 112 210960735 -2113753837 306401367 -1373847408
            -2136225263 534351585 -2003885728 -1359098683</internalNodes>
          <leafValues>
            -3.4424296021461487e-01 4.2242169380187988e-01</leafValues></_>
        <_>
          <internalNodes>
            0 -1 110 80619317 -1920200302 -301875004 713982252 206714961
            471828778 -991915660 -589018408</internalNodes>
          <leafValues>
            -4.5431879162788391e-01 3.4214758872985840e-01</leafValues></_>
        <_>
          <internalNodes>
            0 -1 111 -1430440129 775974639 -318842331 -916259465
            -321450203 -595951759 -957029003 -889993880</internalNodes>
          <leafValues>
            -3.4326845407485962e-01 4.7260349988937378e-01</leafValues></_>
        <_>
          <internalNodes>
            0 -1 168 40060933 -1496669902 -1063048090 1006687066
            813764693 1780588681 -1476261664 -1142166399</internalNodes>
          <leafValues>
            -4.3259227275848389e-01 4.2688268423080444e-01</leafValues></_>
        <_>
          <internalNodes>
            0 -1 100 659239443 108595578 1345679596 -1878467377
            -259505327 -1651472377 -395898671 -1528452655</internalNodes>
          <leafValues>
            -4.6492275595664978e-01 3.8559532165527344e-01</leafValues></_>
        <_>
          <internalNodes>
            0 -1 116 1589355099 -953266210 -5443746 -1497452893
            -403768971 -642498569 -922980412 -1590454795</internalNodes>
          <leafValues>
            -3.9283740520477295e-01 5.0149905681610107e-01</leafValues></_>
        <_>
          <internalNodes>
            0 -1 176 -1150659013 2034055979 -1095770375 247144100
            1617788764 1824456703 -453241035 -455412010</internalNodes>
          <leafValues>
            -3.4502393007278442e-01 5.6400620937347412e-01</leafValues></_></weakClassifiers></_>
    <!-- stage 2 -->
    <_>
      <maxWeakCount>8</maxWeakCount>
      <stageThreshold>-5.7307428121566772e-01</stageThreshold>
      <weakClassifiers>
        <_>
          <internalNodes>
            0 -1 175 -1964544733 779547811 -1073741837 582483940
            -813801900 -1944133635 -850045100 -50987690</internalNodes>
          <leafValues>
            -2.8571429848670959e-01 5.0800579786300659e-01</leafValues></_>
        <_>
          <internalNodes>
            0 -1 15 -58201718 -1461010284 1284018432 -1030229558
            1795761088 1258471600 -502939614 -95825859</internalNodes>
          <leafValues>
            -4.5542049407958984e-01 3.8839456439018250e-01</leafValues></_>
        <_>
          <internalNodes>
            0 -1 17 -299939067 -1978338157 -2107635586 -1973231279
            -645109387 793452833 -1186842955 -1568172939</internalNodes>
          <leafValues>
            -4.1536155343055725e-01 4.3121248483657837e-01</leafValues></_>
        <_>
          <internalNodes>
            0 -1 7 -1012852475 -1476242793 -595292080 -1902888944
            1435462157 -845272511 -396158640 -1532428525</internalNodes>
          <leafValues>
            -4.5278766751289368e-01 4.2946100234985352e-01</leafValues></_>
        <_>
          <internalNodes>
            0 -1 114 -1016079561 1048509787 -268655181 -198519042
            -638298489 -834895874 -1705028521 -1359038697</internalNodes>
          <leafValues>
            -3.1195452809333801e-01 6.6050571203231812e-01</leafValues></_>
        <_>
          <internalNodes>
            0 -1 159 -336638633 770629555 1325354996 -1091541409
            -318941634 -1401133738 1410727030 -331686285</internalNodes>
          <leafValues>
            -3.6061033606529236e-01 5.8951777219772339e-01</leafValues></_>
        <_>
          <internalNodes>
            0 -1 73 1811295599 -2071646901 -287055945 1123413665
            1283337816 -830570641 -34667178 -626201263</internalNodes>
          <leafValues>
            -3.8619709014892578e-01 5.4990351200103760e-01</leafValues></_>
        <_>
          <internalNodes>
            0 -1 161 956175623 996114361 -151027851 -1292435522
            1333083757 -28414505 -974784683 -533236652</internalNodes>
          <leafValues>
            -4.2757108807563782e-01 5.2108448743820190e-01</leafValues></_></weakClassifiers></_>
    <!-- stage 3 -->
    <_>
      <maxWeakCount>9</maxWeakCount>
      <stageThreshold>-1.0837546586990356e+00</stageThreshold>
      <weakClassifiers>
        <_>
          <internalNodes>
            0 -1 79 -1569542873 715276083 -71308556 -424476954
            -1654189520 -302301345 -839422112 -489623948</internalNodes>
          <leafValues>
            -3.1864905357360840e-01 4.4587630033493042e-01</leafValues></_>
        <_>
          <internalNodes>
            0 -1 6 -204222278 1778450151 -1359205276 1495825122
            -1893878048 -277585946 1181087435 -639634406</internalNodes>
          <leafValues>
            -3.0059084296226501e-01 4.8098662495613098e-01</leafValues></_>
        <_>
          <internalNodes>
            0 -1 56 -1547784445 -1366178921 1942283806 -2098278156
            1546209361 1270972419 -2097978508 -1399567612</internalNodes>
          <leafValues>
            -4.0505972504615784e-01 3.8979190587997437e-01</leafValues></_>
        <_>
          <internalNodes>
            0 -1 30 -537464929 2042789802 -865192475 -1519337758
            -551688204 -318898309 1372974959 1832858971</internalNodes>
          <leafValues>
            -3.6913579702377319e-01 5.2006202936172485e-01</leafValues></_>
        <_>
          <internalNodes>
            0 -1 169 -2142370303 -1970430161 -989787437 -1474678704
            675828082 143434057 -1044249596 -2000392004</internalNodes>
          <leafValues>
            -4.3082484602928162e-01 4.3949562311172485e-01</leafValues></_>
        <_>
          <internalNodes>
            0 -1 141 -826577641 1012529286 -721153279 -1056907136
            -1766236044 -786513489 -1452445611 -792188064</internalNodes>
          <leafValues>
            -4.4744020700454712e-01 4.1705286502838135e-01</leafValues></_>
        <_>
          <internalNodes>
            0 -1 58 -1505812701 -2034053674 -939155302 -155842779
            236345692 201375744 -505192443 -689822456</internalNodes>
          <leafValues>
            -4.6537896990776062e-01 4.3612414598464966e-01</leafValues></_>
        <_>
          <internalNodes>
            0 -1 115 918571930 -251227776 1350649496 -2122039278
            -598628288 -1324678783 10166284 1233895457</internalNodes>
          <leafValues>
            -5.0070708990097046e-01 4.2912963032722473e-01</leafValues></_>
        <_>
          <internalNodes>
            0 -1 42 -1539182793 -1265620033 -1359478856 -1024426268
            -285835307 -1488126082 -1342384044 -323692065</internalNodes>
          <leafValues>
            -4.1264337301254272e-01 5.0846320390701294e-01</leafValues></_></weakClassifiers></_>
    <!-- stage 4 -->
    <_>
      <maxWeakCount>9</maxWeakCount>
      <stageThreshold>-9.9934965372085571e-01</stageThreshold>
      <weakClassifiers>
        <_>
          <internalNodes>
            0 -1 81 783234097 1655238462 -285311018 -428937474
            -321054444 -809570314 1052521813 -391840699</internalNodes>
          <leafValues>
            -3.0670469999313354e-01 4.5502644777297974e-01</leafValues></_>
        <_>
          <internalNodes>
            0 -1 11 -963849664 -465566718 50331776 -957611898 1250539734
            1132625920 -1920790289 443008299</internalNodes>
          <leafValues>
            -4.2682194709777832e-01 3.6092257499694824e-01</leafValues></_>
        <_>
          <internalNodes>
            0 -1 109 226944077 101733251 -526511710 -1426800379
            1662011452 -1940960029 -1999845320 -387582080</internalNodes>
          <leafValues>
            -3.9644521474838257e-01 4.1569423675537109e-01</leafValues></_>
        <_>
          <internalNodes>
            0 -1 150 181472544 1321136465 -1668177613 -2103527802
            1100732740 765757918 -1733688099 -1996566491</internalNodes>
          <leafValues>
            -4.5534998178482056e-01 3.7502792477607727e-01</leafValues></_>
        <_>
          <internalNodes>
            0 -1 74 -167828045 -1948188801 -4270892 -173490321 805057877
            -537069739 -308363843 -1124926090</internalNodes>
          <leafValues>
            -3.4096893668174744e-01 5.4815262556076050e-01</leafValues></_>
        <_>
          <internalNodes>
            0 -1 64 -144015205 -729370912 2097082228 1508605340 -674168
            511014900 -1085801510 -36206868</internalNodes>
          <leafValues>
            -2.8493586182594299e-01 6.1883360147476196e-01</leafValues></_>
        <_>
          <internalNodes>
            0 -1 133 42107659 9831990 1892783086 -1319099132 1921518432
            -318196703 -897490943 -1564085468</internalNodes>
          <leafValues>
            -4.6074649691581726e-01 4.4459456205368042e-01</leafValues></_>
        <_>
          <internalNodes>
            0 -1 2 140436194 -804093952 -1342107607 -393985140
            -2113279360 -770996864 134463495 1404278923</internalNodes>
          <leafValues>
            -4.4253188371658325e-01 4.8867082595825195e-01</leafValues></_>
        <_>
          <internalNodes>
            0 -1 174 -130571937 1653704595 -1769453111 -490692106
            -1666488000 -788295549 -1011931039 1824569284</internalNodes>
          <leafValues>
            -4.8987510800361633e-01 4.1795012354850769e-01</leafValues></_></weakClassifiers></_>
    <!-- stage 5 -->
    <_>
      <maxWeakCount>9</maxWeakCount>
      <stageThreshold>-7.0919775962829590e-01</stageThreshold>
      <weakClassifiers>
        <_>
          <internalNodes>
            0 -1 143 1961873179 737034237 -4143 -2130903160 255098708
            230518493 -1082229436 -320406231</internalNodes>
          <leafValues>
            -2.5224071741104126e-01 4.8224851489067078e-01</leafValues></_>
        <_>
          <internalNodes>
            0 -1 46 -357830889 -1103562838 2113372153 -1373444172
            -10653917 -9996801 -772457468 -864445113</internalNodes>
          <leafValues>
            -2.8937771916389465e-01 4.9414357542991638e-01</leafValues></_>
        <_>
          <internalNodes>
            0 -1 5 -304354089 -542506654 -1118505 -323433002 1262051241
            -1094779035 1364346681 -843337281</internalNodes>
          <leafValues>
            -2.3954468965530396e-01 6.2290745973587036e-01</leafValues></_>
        <_>
          <internalNodes>
            0 -1 47 1475344336 1275420746 -2146793104 285720586
            -804714280 1241630873 1216541059 -1810387038</internalNodes>
          <leafValues>
            -4.3045410513877869e-01 3.9320132136344910e-01</leafValues></_>
        <_>
          <internalNodes>
            0 -1 49 -672679111 910339689 -1896878138 -286212807
            896930348 1205007734 884292065 -333054011</internalNodes>
          <leafValues>
            -3.4703856706619263e-01 4.8403674364089966e-01</leafValues></_>
        <_>
          <internalNodes>
            0 -1 170 -806692043 914288501 -1614938681 1044316145
            1332871036 -576555 111049844 -355020814</internalNodes>
          <leafValues>
            -3.6793079972267151e-01 4.8352801799774170e-01</leafValues></_>
        <_>
          <internalNodes>
            0 -1 139 -826669213 1786175293 -1073840769 -294971862
            1865764572 -268976257 1039312080 -596443594</internalNodes>
          <leafValues>
            -3.7313601374626160e-01 5.1485705375671387e-01</leafValues></_>
        <_>
          <internalNodes>
            0 -1 123 851354391 552595823 1073703591 -1438929053 89550157
            -134250503 1560024892 -357763277</internalNodes>
          <leafValues>
            -4.3919521570205688e-01 4.7423550486564636e-01</leafValues></_>
        <_>
          <internalNodes>
            0 -1 4 -560991689 -337056136 -115868 -1954623512 1189949212
            91389951 1023297220 1323160387</internalNodes>
          <leafValues>
            -3.5949990153312683e-01 5.5029261112213135e-01</leafValues></_></weakClassifiers></_>
    <!-- stage 6 -->
    <_>
      <maxWeakCount>10</maxWeakCount>
      <stageThreshold>-8.0924582481384277e-01</stageThreshold>
      <weakClassifiers>
        <_>
          <internalNodes>
            0 -1 21 -508628720 -1727910304 -495129111 1330695906
            458746256 -820199467 -1103886129 -1267131537</internalNodes>
          <leafValues>
            -2.6092714071273804e-01 4.6438747644424438e-01</leafValues></_>
        <_>
          <internalNodes>
            0 -1 177 720973631 215686999 -329934 962789148 -1653666239
            -728440851 -285338144 -588025023</internalNodes>
          <leafValues>
            -3.4420356154441833e-01 4.3298327922821045e-01</leafValues></_>
        <_>
          <internalNodes>
            0 -1 134 -450103072 -1108396425 -876216322 -440443657
            2120752383 -1343234066 -1114112010 91031026</internalNodes>
          <leafValues>
            -3.4310322999954224e-01 4.2815905809402466e-01</leafValues></_>
        <_>
          <internalNodes>
            0 -1 59 -827617737 157789567 -1074927879 -899203090
            1476288365 -1095012354 2146727374 -657605564</internalNodes>
          <leafValues>
            -3.5783851146697998e-01 4.8606109619140625e-01</leafValues></_>
        <_>
          <internalNodes>
            0 -1 153 -1941820158 196087847 -2116943283 -405139183
            2064732972 -350097205 696686849 -1538957968</internalNodes>
          <leafValues>
            -4.6505820751190186e-01 3.6780104041099548e-01</leafValues></_>
        <_>
          <internalNodes>
            0 -1 0 1385410048 1694566424 -2143288055 151126150 622744
            -2063359955 269559947 1496819930</internalNodes>
          <leafValues>
            -4.5813775062561035e-01 4.0399569272994995e-01</leafValues></_>
        <_>
          <internalNodes>
            0 -1 36 186517527 717262855 -1789840795 -668962040
            1625370704 -1756476413 -839352303 984757072</internalNodes>
          <leafValues>
            -5.2218627929687500e-01 3.5557627677917480e-01</leafValues></_>
        <_>
          <internalNodes>
            0 -1 180 -1442935523 -1360072885 1878994287 1889315454
            696223332 -168890497 -864240776 -52732956</internalNodes>
          <leafValues>
            -3.8091576099395752e-01 5.1267313957214355e-01</leafValues></_>
        <_>
          <internalNodes>
            0 -1 131 1092605244 562316693 2013515190 -1396667992
            483411743 1789574025 -342619697 -1396144063</internalNodes>
          <leafValues>
            -4.4360861182212830e-01 4.4498276710510254e-01</leafValues></_>
        <_>
          <internalNodes>
            0 -1 52 169805859 -2038372221 -1997990080 -55001692
            1814626885 -157982720 26776196 1691137248</internalNodes>
          <leafValues>
            -5.3925335407257080e-01 3.8542488217353821e-01</leafValues></_></weakClassifiers></_>
    <!-- stage 7 -->
    <_>
      <maxWeakCount>8</maxWeakCount>
      <stageThreshold>-5.0847148895263672e-01</stageThreshold>
      <weakClassifiers>
        <_>
          <internalNodes>
            0 -1 1 -88807486 -901861726 -823461784 752250466 -153772076
            -1916469252 -545420068 -966476249</internalNodes>
          <leafValues>
            -3.3848533034324646e-01 4.2962962388992310e-01</leafValues></_>
        <_>
          <internalNodes>
            0 -1 122 1384497682 -2007576562 268600156 1007783936
            1118372967 1216364673 -196788208 1088385063</internalNodes>
          <leafValues>
            -5.0350648164749146e-01 3.0300852656364441e-01</leafValues></_>
        <_>
          <internalNodes>
            0 -1 140 -90837227 -1142491593 1711209074 -1100169559
            -1195963135 1509914453 -1091054165 -978193882</internalNodes>
          <leafValues>
            -3.1836095452308655e-01 4.6615925431251526e-01</leafValues></_>
        <_>
          <internalNodes>
            0 -1 132 1865202005 1584353039 -1074331674 -1262764632
            1723025102 -763920386 2053026517 -1089220620</internalNodes>
          <leafValues>
            -3.0775666236877441e-01 4.9468058347702026e-01</leafValues></_>
        <_>
          <internalNodes>
            0 -1 121 1681427985 -726208470 -9445727 -1722761626
            -270059813 -2015952971 1325257784 -916619446</internalNodes>
          <leafValues>
            -3.3884951472282410e-01 4.8029512166976929e-01</leafValues></_>
        <_>
          <internalNodes>
            0 -1 14 -940119293 883699692 -286331059 -185991426
            2104880816 -420584203 780099444 -995252942</internalNodes>
          <leafValues>
            -3.8131207227706909e-01 4.5497077703475952e-01</leafValues></_>
        <_>
          <internalNodes>
            0 -1 165 -581444811 1052737270 -587972737 1813020660
            -2022228648 483803124 527733880 -399778577</internalNodes>
          <leafValues>
            -2.9355791211128235e-01 6.0025691986083984e-01</leafValues></_>
        <_>
          <internalNodes>
            0 -1 117 -725051738 1375900437 -2122196992 1814040640
            147053720 1611334082 1342243336 -1588221369</internalNodes>
          <leafValues>
            -3.8579276204109192e-01 4.4965314865112305e-01</leafValues></_></weakClassifiers></_>
    <!-- stage 8 -->
    <_>
      <maxWeakCount>9</maxWeakCount>
      <stageThreshold>-5.4795253276824951e-01</stageThreshold>
      <weakClassifiers>
        <_>
          <internalNodes>
            0 -1 148 1949276183 -1670480218 -1409552394 1604878126
            -2112061 -1000599758 1360185 -750817108</internalNodes>
          <leafValues>
            -1.9820828735828400e-01 5.4255318641662598e-01</leafValues></_>
        <_>
          <internalNodes>
            0 -1 90 -849089257 -190006174 -269139979 1656465199
            503176400 -547395758 623840466 -815836077</internalNodes>
          <leafValues>
            -2.7273261547088623e-01 5.1614040136337280e-01</leafValues></_>
        <_>
          <internalNodes>
            0 -1 155 -84947373 -177717800 -1363149167 -1087439047
            107996923 -1367349324 1205241596 -603981277</internalNodes>
          <leafValues>
            -2.1631826460361481e-01 6.0694634914398193e-01</leafValues></_>
        <_>
          <internalNodes>
            0 -1 162 -907544749 1332727342 -1879263239 258375655
            -1585453152 -2031149194 1554831352 -543312195</internalNodes>
          <leafValues>
            -3.1332004070281982e-01 5.2829891443252563e-01</leafValues></_>
        <_>
          <internalNodes>
            0 -1 82 -1027215546 520242451 -1874768584 840433736 135628
            -1360134134 1120802944 -193739471</internalNodes>
          <leafValues>
            -4.0312504768371582e-01 4.2193126678466797e-01</leafValues></_>
        <_>
          <internalNodes>
            0 -1 101 -22937066 -1274994670 1174456367 -2076098543
            1653524880 -1979643860 2030077057 1842602066</internalNodes>
          <leafValues>
            -4.0036630630493164e-01 3.9836373925209045e-01</leafValues></_>
        <_>
          <internalNodes>
            0 -1 124 -1566637945 -161657110 -321917441 334213055
            108927412 -1629327794 2097118688 -818692811</internalNodes>
          <leafValues>
            -3.7588214874267578e-01 4.7807198762893677e-01</leafValues></_>
        <_>
          <internalNodes>
            0 -1 86 -1674719437 1203305712 -1224835778 -80187498
            -944376164 -2039054479 508843901 -1740902434</internalNodes>
          <leafValues>
            -3.3655655384063721e-01 5.3019827604293823e-01</leafValues></_>
        <_>
          <internalNodes>
            0 -1 126 -1063452158 1946966101 -805289837 -654196726
            20980870 243862147 268462496 -231692255</internalNodes>
          <leafValues>
            -3.9419943094253540e-01 4.5544645190238953e-01</leafValues></_></weakClassifiers></_>
    <!-- stage 9 -->
    <_>
      <maxWeakCount>9</maxWeakCount>
      <stageThreshold>-6.7859292030334473e-01</stageThreshold>
      <weakClassifiers>
        <_>
          <internalNodes>
            0 -1 37 -2098418272 2071621361 -1401104042 -1649887454
            1896234164 -285278217 1610055178 727266970</internalNodes>
          <leafValues>
            -3.2278481125831604e-01 4.0363636612892151e-01</leafValues></_>
        <_>
          <internalNodes>
            0 -1 96 1860406673 -1123948947 -83942935 2143776383
            -1493308219 -2000257027 2105352126 -1679016139</internalNodes>
          <leafValues>
            -2.3277999460697174e-01 5.6791651248931885e-01</leafValues></_>
        <_>
          <internalNodes>
            0 -1 93 939937379 475059204 -1275065266 -1083125719
            1746258780 -309190336 2022241380 -1568740864</internalNodes>
          <leafValues>
            -3.8606965541839600e-01 3.7128320336341858e-01</leafValues></_>
        <_>
          <internalNodes>
            0 -1 160 1730851347 2133704635 -1082200250 469090272
            117427669 -671285290 1751768732 -1862334616</internalNodes>
          <leafValues>
            -3.5998028516769409e-01 4.5119920372962952e-01</leafValues></_>
        <_>
          <internalNodes>
            0 -1 179 900304267 -26711011 -50385242 -218223456 1323767640
            -671711274 -136947747 -507662904</internalNodes>
          <leafValues>
            -2.4200177192687988e-01 5.5945563316345215e-01</leafValues></_>
        <_>
          <internalNodes>
            0 -1 104 -78081579 724286934 922156991 -147390559 1818951313
            1339420669 -1099289480 -1553525393</internalNodes>
          <leafValues>
            -3.6866310238838196e-01 4.7941574454307556e-01</leafValues></_>
        <_>
          <internalNodes>
            0 -1 27 -1704039145 344457018 981400571 -1258390086
            -1216393363 -1110581378 -860357048 -1679676864</internalNodes>
          <leafValues>
            -3.6253115534782410e-01 4.5840385556221008e-01</leafValues></_>
        <_>
          <internalNodes>
            0 -1 136 744504087 49151896 -285744377 -739275337 668990735
            1023410110 1979342268 -26366672</internalNodes>
          <leafValues>
            -3.7178412079811096e-01 4.7816401720046997e-01</leafValues></_>
        <_>
          <internalNodes>
            0 -1 57 -994730069 -1176486017 1071512252 562715984
            1626856628 -1663139976 1169683933 1252035940</internalNodes>
          <leafValues>
            -3.6057311296463013e-01 4.8329406976699829e-01</leafValues></_></weakClassifiers></_>
    <!-- stage 10 -->
    <_>
      <maxWeakCount>11</maxWeakCount>
      <stageThreshold>-7.0228773355484009e-01</stageThreshold>
      <weakClassifiers>
        <_>
          <internalNodes>
            0 -1 172 -421141459 968551153 -67244060 -853741848
            -574922867 -60432553 -168695920 -1498184686</internalNodes>
          <leafValues>
            -1.9723182916641235e-01 5.0847458839416504e-01</leafValues></_>
        <_>
          <internalNodes>
            0 -1 85 275423859 823449332 1962939614 -1466686906 371033189
            1771045169 -330495863 -2044858108</internalNodes>
          <leafValues>
            -3.5473376512527466e-01 3.8028788566589355e-01</leafValues></_>
        <_>
          <internalNodes>
            0 -1 128 -840562107 -849559715 -1477120464 -512774402
            1467856177 -1359479363 -822548928 -1792966877</internalNodes>
          <leafValues>
            -3.6570939421653748e-01 3.9238649606704712e-01</leafValues></_>
        <_>
          <internalNodes>
            0 -1 33 1247364012 -1101274649 -951838508 1860362322
            1170285575 2042925496 -826081112 981969719</internalNodes>
          <leafValues>
            -4.5484989881515503e-01 3.5017564892768860e-01</leafValues></_>
        <_>
          <internalNodes>
            0 -1 137 1588962835 -902500369 -856339 -475206356 938833524
            796164068 -328644872 -1586630684</internalNodes>
          <leafValues>
            -3.1156957149505615e-01 4.9756756424903870e-01</leafValues></_>
        <_>
          <internalNodes>
            0 -1 87 1946088639 528426923 1777532629 -1983972497
            1593161201 -1375741957 -313378 -1295491538</internalNodes>
          <leafValues>
            -2.6786249876022339e-01 6.4816123247146606e-01</leafValues></_>
        <_>
          <internalNodes>
            0 -1 9 1570013053 -1445806078 -1816062892 1283768601
            537970464 1748107940 -257351680 -1713559038</internalNodes>
          <leafValues>
            -3.9372950792312622e-01 4.2110919952392578e-01</leafValues></_>
        <_>
          <internalNodes>
            0 -1 50 2002366148 1936370943 -1153548764 1706028772
            1149023737 494925735 -33620279 -1175696714</internalNodes>
          <leafValues>
            -3.2670834660530090e-01 5.2521395683288574e-01</leafValues></_>
        <_>
          <internalNodes>
            0 -1 68 -1029388080 -1810386309 318808133 -989842764
            171545023 -105840607 956949588 -1987825117</internalNodes>
          <leafValues>
            -4.0982303023338318e-01 4.3274089694023132e-01</leafValues></_>
        <_>
          <internalNodes>
            0 -1 83 -806439947 2147278455 -50331659 -1834866846
            1333612475 1988091903 1878883596 -491926726</internalNodes>
          <leafValues>
            -3.1155243515968323e-01 6.1134213209152222e-01</leafValues></_>
        <_>
          <internalNodes>
            0 -1 97 -263573660 -1685938153 -1593768932 -1776983760
            1083580432 411107490 -1023094135 -780799355</internalNodes>
          <leafValues>
            -4.7254052758216858e-01 4.1120618581771851e-01</leafValues></_></weakClassifiers></_>
    <!-- stage 11 -->
    <_>
      <maxWeakCount>10</maxWeakCount>
      <stageThreshold>-1.0166716575622559e+00</stageThreshold>
      <weakClassifiers>
        <_>
          <internalNodes>
            0 -1 12 -269552933 1082031971 -83956836 -1573062942
            -68186128 -1640505514 -520229222 -1033380261</internalNodes>
          <leafValues>
            -2.2732625901699066e-01 5.2960526943206787e-01</leafValues></_>
        <_>
          <internalNodes>
            0 -1 144 -498678246 1988262438 83989020 168034690 1750374162
            -358480240 1351139588 1278575574</internalNodes>
          <leafValues>
            -4.4513300061225891e-01 3.1419035792350769e-01</leafValues></_>
        <_>
          <internalNodes>
            0 -1 67 -729844749 1585036854 1723772821 -1002130187
            1708635879 -659350147 2113295050 -880816153</internalNodes>
          <leafValues>
            -2.3424838483333588e-01 6.1848026514053345e-01</leafValues></_>
        <_>
          <internalNodes>
            0 -1 106 -606674875 161513602 1124276429 1744917966
            -913659819 -905310207 -1060925328 1830001411</internalNodes>
          <leafValues>
            -4.4668889045715332e-01 3.4458714723587036e-01</leafValues></_>
        <_>
          <internalNodes>
            0 -1 92 -129647881 -1083851220 -293146760 -714510409
            -1351625538 -281260417 832872418 -999301275</internalNodes>
          <leafValues>
            -2.3144856095314026e-01 6.6391062736511230e-01</leafValues></_>
        <_>
          <internalNodes>
            0 -1 149 1969223883 -1482241284 -1275199911 -80675206
            -276916954 -587009449 1835521432 1425931355</internalNodes>
          <leafValues>
            -3.3671543002128601e-01 5.1396727561950684e-01</leafValues></_>
        <_>
          <internalNodes>
            0 -1 8 -359739686 360841216 -1861713071 88129554 -1056268072
            -1442627456 554205338 -1783534813</internalNodes>
          <leafValues>
            -4.0548673272132874e-01 4.2702546715736389e-01</leafValues></_>
        <_>
          <internalNodes>
            0 -1 130 1081339699 -1675628585 246348350 -1171589578
            -1481169185 -1661009979 -33695916 -626789513</internalNodes>
          <leafValues>
            -3.6025479435920715e-01 5.1579898595809937e-01</leafValues></_>
        <_>
          <internalNodes>
            0 -1 65 1132976896 661400184 -136450191 -1367845196
            652567682 -1923645594 1837069736 -2140154726</internalNodes>
          <leafValues>
            -4.0955102443695068e-01 4.5655798912048340e-01</leafValues></_>
        <_>
          <internalNodes>
            0 -1 158 1496017691 -1360034194 2130378733 970571642
            352255320 -8409244 1278667836 -859850925</internalNodes>
          <leafValues>
            -3.7776315212249756e-01 5.1984959840774536e-01</leafValues></_></weakClassifiers></_>
    <!-- stage 12 -->
    <_>
      <maxWeakCount>11</maxWeakCount>
      <stageThreshold>-9.7266453504562378e-01</stageThreshold>
      <weakClassifiers>
        <_>
          <internalNodes>
            0 -1 173 -1019263113 1542508082 -285290503 764656486
            -2014186776 -102334473 1325358099 -68162137</internalNodes>
          <leafValues>
            -1.3459621369838715e-01 5.8149778842926025e-01</leafValues></_>
        <_>
          <internalNodes>
            0 -1 28 1865149851 547810615 2028610420 1003780785
            -2114757124 -1402503561 695621576 -164761325</internalNodes>
          <leafValues>
            -2.7207741141319275e-01 4.3277040123939514e-01</leafValues></_>
        <_>
          <internalNodes>
            0 -1 53 -1397584777 -466061322 -570772483 1979612761
            -1770029517 -1090560001 719566488 -574620481</internalNodes>
          <leafValues>
            -2.4080273509025574e-01 5.1539796590805054e-01</leafValues></_>
        <_>
          <internalNodes>
            0 -1 63 -1496848715 2100832882 -1363529985 -1686409669
            737738728 -805306505 1453835996 -1066414191</internalNodes>
          <leafValues>
            -3.3203867077827454e-01 4.6219855546951294e-01</leafValues></_>
        <_>
          <internalNodes>
            0 -1 164 -530268653 967599755 -75809240 -1666552269
            -46341003 -528720066 750366044 -881461768</internalNodes>
          <leafValues>
            -3.7998238205909729e-01 4.0013477206230164e-01</leafValues></_>
        <_>
          <internalNodes>
            0 -1 113 -357567529 1064464055 2128290365 1267873513
            -277003888 -1379996420 -1871423567 -622862342</internalNodes>
          <leafValues>
            -2.4413028359413147e-01 5.7188510894775391e-01</leafValues></_>
        <_>
          <internalNodes>
            0 -1 18 -483733837 1428758066 1811869303 -2102067781
            1878886342 -1124171850 -193073428 -426261031</internalNodes>
          <leafValues>
            -2.6140472292900085e-01 5.5585354566574097e-01</leafValues></_>
        <_>
          <internalNodes>
            0 -1 70 -587208045 -890245576 -25461007 62160625 -1485349847
            -1363705988 1328965424 -554830820</internalNodes>
          <leafValues>
            -3.4168633818626404e-01 4.9027341604232788e-01</leafValues></_>
        <_>
          <internalNodes>
            0 -1 80 -356523431 2067414504 -34447685 -207175831
            1986000840 219856677 368883614 -641008697</internalNodes>
          <leafValues>
            -3.1412506103515625e-01 5.6766736507415771e-01</leafValues></_>
        <_>
          <internalNodes>
            0 -1 61 -2141536234 1125384211 -787824064 1384273034
            1502186144 1493272706 554197264 170475866</internalNodes>
          <leafValues>
            -5.3568863868713379e-01 3.7797078490257263e-01</leafValues></_>
        <_>
          <internalNodes>
            0 -1 107 -2031669569 129072650 -1359024261 -641802567
            -1082878971 -1627390088 1792948221 -268737038</internalNodes>
          <leafValues>
            -3.8022944331169128e-01 4.8432621359825134e-01</leafValues></_></weakClassifiers></_>
    <!-- stage 13 -->
    <_>
      <maxWeakCount>10</maxWeakCount>
      <stageThreshold>-5.3888064622879028e-01</stageThreshold>
      <weakClassifiers>
        <_>
          <internalNodes>
            0 -1 88 287455104 -713675568 -597786755 1600610021
            -1350805564 1572225014 1054678526 749995605</internalNodes>
          <leafValues>
            -3.2778701186180115e-01 3.8084113597869873e-01</leafValues></_>
        <_>
          <internalNodes>
            0 -1 163 1786326031 2103619455 -1644249923 755613495
            507073710 -1350570012 1853087710 -819447884</internalNodes>
          <leafValues>
            -2.6771348714828491e-01 4.5139232277870178e-01</leafValues></_>
        <_>
          <internalNodes>
            0 -1 32 27369429 -710492804 2146205360 -1766950593 836597597
            -554312257 -184559750 -1139371332</internalNodes>
          <leafValues>
            -2.9807353019714355e-01 4.4027030467987061e-01</leafValues></_>
        <_>
          <internalNodes>
            0 -1 145 1780720511 1598626928 2146946605 -679645442
            -850509826 -168476681 515861980 -234948157</internalNodes>
          <leafValues>
            -2.7735301852226257e-01 5.4880040884017944e-01</leafValues></_>
        <_>
          <internalNodes>
            0 -1 39 -2143114784 1754424327 1221972 -922220282 1610957052
            764135562 -696116901 940114185</internalNodes>
          <leafValues>
            -4.3082964420318604e-01 3.4228864312171936e-01</leafValues></_>
        <_>
          <internalNodes>
            0 -1 3 115678799 -1476878337 -1191269055 -777179156
            -698707259 -815366530 1673459614 -1696286942</internalNodes>
          <leafValues>
            -3.5743644833564758e-01 4.4061338901519775e-01</leafValues></_>
        <_>
          <internalNodes>
            0 -1 102 -2061465607 -195395722 -823165199 -1280999748
            -939604492 242515932 -1267353863 -1982587123</internalNodes>
          <leafValues>
            -2.9368203878402710e-01 5.1475906372070313e-01</leafValues></_>
        <_>
          <internalNodes>
            0 -1 44 213002069 1467916209 -1191329818 2145796094
            1467303804 -1327169667 -2013339271 -1313020873</internalNodes>
          <leafValues>
            -3.9946556091308594e-01 4.2743295431137085e-01</leafValues></_>
        <_>
          <internalNodes>
            0 -1 99 783910711 2125987375 1588574013 1750739562
            -1744865642 1434091509 -77846660 -236036137</internalNodes>
          <leafValues>
            -3.5041818022727966e-01 4.5975562930107117e-01</leafValues></_>
        <_>
          <internalNodes>
            0 -1 171 -1432464950 -1774070584 1140875869 -1119026301
            -1172041595 143147017 1654687944 164303060</internalNodes>
          <leafValues>
            -4.7531777620315552e-01 3.4930270910263062e-01</leafValues></_></weakClassifiers></_>
    <!-- stage 14 -->
    <_>
      <maxWeakCount>7</maxWeakCount>
      <stageThreshold>-4.7923180460929871e-01</stageThreshold>
      <weakClassifiers>
        <_>
          <internalNodes>
            0 -1 166 621283636 -1090369150 1159468501 328204688
            1090802060 -1003789728 35277184 182851868</internalNodes>
          <leafValues>
            -5.8126723766326904e-01 3.1078609824180603e-01</leafValues></_>
        <_>
          <internalNodes>
            0 -1 62 713688113 222749221 1109170456 -1274885440
            1270969357 1257952269 -1026930064 -400168783</internalNodes>
          <leafValues>
            -4.3474623560905457e-01 3.4108856320381165e-01</leafValues></_>
        <_>
          <internalNodes>
            0 -1 23 149964161 589873507 -1694445035 -299863888 151802532
            1632175169 -1732073260 -2145374940</internalNodes>
          <leafValues>
            -4.5504593849182129e-01 3.9191082119941711e-01</leafValues></_>
        <_>
          <internalNodes>
            0 -1 41 -289849537 -1376301836 -1074958788 -1116163522
            1741042863 -10698793 469554141 -822167784</internalNodes>
          <leafValues>
            -3.4320065379142761e-01 5.2563774585723877e-01</leafValues></_>
        <_>
          <internalNodes>
            0 -1 78 636161587 800623540 2080341999 -160369036 -805354236
            1610571639 -34021705 -21321870</internalNodes>
          <leafValues>
            -3.9033803343772888e-01 4.6413716673851013e-01</leafValues></_>
        <_>
          <internalNodes>
            0 -1 98 -1607786217 -1933674796 -1610670408 1117927087
            -1107536524 1868033886 1610116050 -523655787</internalNodes>
          <leafValues>
            -3.8667383790016174e-01 4.6459433436393738e-01</leafValues></_>
        <_>
          <internalNodes>
            0 -1 75 1853784715 -1258192969 -160649251 1071801942
            -587772276 -847970440 -283148342 -832890130</internalNodes>
          <leafValues>
            -3.6201962828636169e-01 5.5286163091659546e-01</leafValues></_></weakClassifiers></_>
    <!-- stage 15 -->
    <_>
      <maxWeakCount>8</maxWeakCount>
      <stageThreshold>-6.2772959470748901e-01</stageThreshold>
      <weakClassifiers>
        <_>
          <internalNodes>
            0 -1 76 11799381 989739517 -10341 804040188 -1245774731
            -196737 -1687727 -1448604236</internalNodes>
          <leafValues>
            -3.2168850302696228e-01 4.5454546809196472e-01</leafValues></_>
        <_>
          <internalNodes>
            0 -1 19 203623141 770458798 406016759 -2046475660 -355900607
            28082236 1048986073 -340199964</internalNodes>
          <leafValues>
            -3.5776546597480774e-01 4.3377336859703064e-01</leafValues></_>
        <_>
          <internalNodes>
            0 -1 151 759117017 615131842 -1707383 -2133459332 1429172039
            -1644843059 -570642479 -1360803927</internalNodes>
          <leafValues>
            -3.5763230919837952e-01 4.5460742712020874e-01</leafValues></_>
        <_>
          <internalNodes>
            0 -1 103 657417035 -286363777 -687883548 -1176815745
            49767229 -1518338435 2147229616 -303792835</internalNodes>
          <leafValues>
            -4.0820461511611938e-01 4.6589806675910950e-01</leafValues></_>
        <_>
          <internalNodes>
            0 -1 72 800014983 251670318 -1096302614 1944383464
            1339520321 1694465791 29255089 -1300830871</internalNodes>
          <leafValues>
            -3.5183599591255188e-01 4.9925759434700012e-01</leafValues></_>
        <_>
          <internalNodes>
            0 -1 95 -1434757373 464785539 -122142238 15265568 222382681
            -1056640919 1274901545 -1192703771</internalNodes>
          <leafValues>
            -4.4151547551155090e-01 4.4529360532760620e-01</leafValues></_>
        <_>
          <internalNodes>
            0 -1 138 -2069816217 652459758 -37897648 -383880004
            1171598637 1707605879 1937206628 -269492908</internalNodes>
          <leafValues>
            -4.1772571206092834e-01 4.6906208992004395e-01</leafValues></_>
        <_>
          <internalNodes>
            0 -1 31 647163823 2097909740 1760984939 1862985314
            1928537101 2136732509 -1107886116 -964767934</internalNodes>
          <leafValues>
            -3.5137403011322021e-01 5.8078420162200928e-01</leafValues></_></weakClassifiers></_>
    <!-- stage 16 -->
    <_>
      <maxWeakCount>9</maxWeakCount>
      <stageThreshold>-5.4534685611724854e-01</stageThreshold>
      <weakClassifiers>
        <_>
          <internalNodes>
            0 -1 25 -872215258 606867712 1351042114 719100296 1216430177
            570704735 -1995740860 1155634723</internalNodes>
          <leafValues>
            -7.4089068174362183e-01 2.5785124301910400e-01</leafValues></_>
        <_>
          <internalNodes>
            0 -1 20 -428536830 -1921363838 1146492688 436503190
            815426005 152052912 -473213914 -692369075</internalNodes>
          <leafValues>
            -4.6426397562026978e-01 3.2070305943489075e-01</leafValues></_>
        <_>
          <internalNodes>
            0 -1 152 752037643 -1050837639 947616502 -1163666648
            1562279534 -1477610521 393998705 -812128955</internalNodes>
          <leafValues>
            -3.1508105993270874e-01 5.0317484140396118e-01</leafValues></_>
        <_>
          <internalNodes>
            0 -1 84 -1380548507 -1557758376 -218188048 -70949255
            1911186822 -101194121 -939804474 -920393897</internalNodes>
          <leafValues>
            -3.2882109284400940e-01 5.0312179327011108e-01</leafValues></_>
        <_>
          <internalNodes>
            0 -1 22 551785236 319463654 85033074 1762087013 1578217622
            420628257 20988288 -457717695</internalNodes>
          <leafValues>
            -4.9833333492279053e-01 3.4415060281753540e-01</leafValues></_>
        <_>
          <internalNodes>
            0 -1 146 -1458645829 1053473573 -1342276943 505904382
            200695276 1010106230 1559621970 -1396134733</internalNodes>
          <leafValues>
            -3.5837370157241821e-01 4.9892714619636536e-01</leafValues></_>
        <_>
          <internalNodes>
            0 -1 48 -852533741 -937251267 -51560648 -822706259
            -857225382 106823551 -151638891 -2031370957</internalNodes>
          <leafValues>
            -3.9398258924484253e-01 4.8823627829551697e-01</leafValues></_>
        <_>
          <internalNodes>
            0 -1 40 361721411 -1141444743 -16798095 1038696010
            -1082449964 1742659572 1609938943 -781418512</internalNodes>
          <leafValues>
            -3.4791395068168640e-01 5.4267394542694092e-01</leafValues></_>
        <_>
          <internalNodes>
            0 -1 105 -1372191219 2002790277 1510049772 -544988096
            1368024428 -2038179839 -251943401 1840669215</internalNodes>
          <leafValues>
            -4.3398123979568481e-01 4.4610142707824707e-01</leafValues></_></weakClassifiers></_>
    <!-- stage 17 -->
    <_>
      <maxWeakCount>10</maxWeakCount>
      <stageThreshold>-7.2891569137573242e-01</stageThreshold>
      <weakClassifiers>
        <_>
          <internalNodes>
            0 -1 26 -842861526 604508430 -2074856384 44061826 1757549349
            1092193811 1304470356 1150344202</internalNodes>
          <leafValues>
            -7.1428573131561279e-01 2.5082507729530334e-01</leafValues></_>
        <_>
          <internalNodes>
            0 -1 120 1313220915 690136526 -938981162 1317408896
            -2136064188 -1476181081 1158376741 -407487048</internalNodes>
          <leafValues>
            -3.7462416291236877e-01 3.5417470335960388e-01</leafValues></_>
        <_>
          <internalNodes>
            0 -1 77 767818021 -361222601 1861100963 1667558964
            1870207789 1361034749 796570957 -687022220</internalNodes>
          <leafValues>
            -3.4876766800880432e-01 4.2135557532310486e-01</leafValues></_>
        <_>
          <internalNodes>
            0 -1 38 -162890551 -1528103818 -1895912823 -1477518302
            -201890115 -1221073585 -738199725 -193184021</internalNodes>
          <leafValues>
            -3.2674562931060791e-01 4.5479124784469604e-01</leafValues></_>
        <_>
          <internalNodes>
            0 -1 35 1145770315 1632108750 352506241 -905948836 9507536
            1217398835 -1248972011 1947743026</internalNodes>
          <leafValues>
            -5.5910021066665649e-01 2.6273837685585022e-01</leafValues></_>
        <_>
          <internalNodes>
            0 -1 55 23059705 1660071863 -1092158583 708834341 2127970680
            -2072463914 -415777366 -29292695</internalNodes>
          <leafValues>
            -3.1479713320732117e-01 5.1917505264282227e-01</leafValues></_>
        <_>
          <internalNodes>
            0 -1 43 -501252299 1668462830 -1090748929 -960577940
            -546818412 -1620066314 524136498 -642618501</internalNodes>
          <leafValues>
            -3.5066172480583191e-01 4.9956801533699036e-01</leafValues></_>
        <_>
          <internalNodes>
            0 -1 16 -293101721 2133452399 1861074155 1252257517
            -1267773838 1457518581 -246704181 -1368447361</internalNodes>
          <leafValues>
            -3.0447816848754883e-01 5.7342183589935303e-01</leafValues></_>
        <_>
          <internalNodes>
            0 -1 147 -517442813 803242268 585484289 -2109701607
            734432098 -636960678 -83124571 -2016034470</internalNodes>
          <leafValues>
            -4.1068202257156372e-01 4.4389742612838745e-01</leafValues></_>
        <_>
          <internalNodes>
            0 -1 135 -15955375 130022072 -272662563 -1045254163
            -1074456624 -1132462089 1601690738 -1437794305</internalNodes>
          <leafValues>
            -3.6338275671005249e-01 5.0658190250396729e-01</leafValues></_></weakClassifiers></_>
    <!-- stage 18 -->
    <_>
      <maxWeakCount>9</maxWeakCount>
      <stageThreshold>-5.0834238529205322e-01</stageThreshold>
      <weakClassifiers>
        <_>
          <internalNodes>
            0 -1 154 -1072679358 -2071285673 1344657412 1720576 9437216
            2031747072 -2130632638 1885049378</internalNodes>
          <leafValues>
            -5.4574131965637207e-01 2.6491227746009827e-01</leafValues></_>
        <_>
          <internalNodes>
            0 -1 69 -890526755 1071933300 805305653 -1217400834
            2147306724 -405548345 -67128174 -1399062562</internalNodes>
          <leafValues>
            -2.3816892504692078e-01 4.9629205465316772e-01</leafValues></_>
        <_>
          <internalNodes>
            0 -1 108 -1254032651 566989315 99136 202359352 406893383
            1378654280 -1962501914 1510011633</internalNodes>
          <leafValues>
            -3.5585778951644897e-01 3.4552848339080811e-01</leafValues></_>
        <_>
          <internalNodes>
            0 -1 24 -729807800 43029335 -1878695712 1153893504 195039245
            1260160256 -796317152 -731456766</internalNodes>
          <leafValues>
            -5.4879975318908691e-01 2.5847333669662476e-01</leafValues></_>
        <_>
          <internalNodes>
            0 -1 29 -1828241321 454001962 -712965376 -703512495
            -167656566 1518567426 889244584 -1135921005</internalNodes>
          <leafValues>
            -3.7094372510910034e-01 4.2055973410606384e-01</leafValues></_>
        <_>
          <internalNodes>
            0 -1 178 -549730807 2013425648 -419709322 2036989870
            1425553054 1600929662 -1609061372 1646566292</internalNodes>
          <leafValues>
            -3.5495939850807190e-01 4.3516385555267334e-01</leafValues></_>
        <_>
          <internalNodes>
            0 -1 119 1936605311 915982359 -2013165055 -686059485
            -2058386812 371532426 -1903787267 -1274101744</internalNodes>
          <leafValues>
            -4.0260231494903564e-01 4.1136631369590759e-01</leafValues></_>
        <_>
          <internalNodes>
            0 -1 94 -106746181 -882427906 2080208436 -499713555
            929508663 90046318 -177274952 -766118443</internalNodes>
          <leafValues>
            -3.1553491950035095e-01 5.0463050603866577e-01</leafValues></_>
        <_>
          <internalNodes>
            0 -1 45 1359627632 -541554446 1073781336 1850437970
            837464217 -849523670 -2113562461 -490630703</internalNodes>
          <leafValues>
            -4.1035804152488708e-01 3.9157527685165405e-01</leafValues></_></weakClassifiers></_>
    <!-- stage 19 -->
    <_>
      <maxWeakCount>9</maxWeakCount>
      <stageThreshold>-1.0062944889068604e+00</stageThreshold>
      <weakClassifiers>
        <_>
          <internalNodes>
            0 -1 89 1573148396 1903902333 -352433026 694264959
            1572646509 -1644659340 1299470444 178793571</internalNodes>
          <leafValues>
            -3.3637747168540955e-01 4.3750000000000000e-01</leafValues></_>
        <_>
          <internalNodes>
            0 -1 91 -2029903536 1519780056 822158300 688492558
            1510093469 2032142477 -1589110307 -1543478479</internalNodes>
          <leafValues>
            -4.2733088135719299e-01 3.5734382271766663e-01</leafValues></_>
        <_>
          <internalNodes>
            0 -1 51 304618232 -1209192526 1031569261 1006626425
            1178357165 534048727 -571175798 685204820</internalNodes>
          <leafValues>
            -3.4859600663185120e-01 4.5887216925621033e-01</leafValues></_>
        <_>
          <internalNodes>
            0 -1 34 1631584384 -686521905 1117967987 -1858989521
            1633701928 -192413432 -1996486216 1147306351</internalNodes>
          <leafValues>
            -4.0146806836128235e-01 4.1780760884284973e-01</leafValues></_>
        <_>
          <internalNodes>
            0 -1 118 1520387 1356333131 327291345 839942801 605129260
            -2015330127 -1953321538 -964664832</internalNodes>
          <leafValues>
            -4.3452998995780945e-01 3.9730355143547058e-01</leafValues></_>
        <_>
          <internalNodes>
            0 -1 125 1380188854 -1091010561 1065144297 695270893
            -335669347 -1086571074 925006975 -1577982350</internalNodes>
          <leafValues>
            -3.9367213845252991e-01 4.4150310754776001e-01</leafValues></_>
        <_>
          <internalNodes>
            0 -1 54 1894028649 1874595550 -1073782921 662420586
            1415163024 -1610645508 -955007254 -333871426</internalNodes>
          <leafValues>
            -3.5945081710815430e-01 5.0106769800186157e-01</leafValues></_>
        <_>
          <internalNodes>
            0 -1 129 1342574824 -1589009336 -469581800 -1726644187
            -1867421340 730431618 -260027798 11053586</internalNodes>
          <leafValues>
            -4.4967508316040039e-01 4.2589300870895386e-01</leafValues></_>
        <_>
          <internalNodes>
            0 -1 71 1509832479 -1678639752 -1661177987 -1180468098
            1048476796 -1073783434 -1078282801 -746039428</internalNodes>
          <leafValues>
            -3.6515811085700989e-01 5.5429166555404663e-01</leafValues></_></weakClassifiers></_></stages>
  <features>
    <_>
      <rect>
        0 0 4 4</rect></_>
    <_>
      <rect>
        0 0 8 8</rect></_>
    <_>
      <rect>
        0 1 3 5</rect></_>
    <_>
      <rect>
        0 1 4 3</rect></_>
    <_>
      <rect>
        0 2 2 2</rect></_>
    <_>
      <rect>
        0 3 3 5</rect></_>
    <_>
      <rect>
        0 3 6 6</rect></_>
    <_>
      <rect>
        0 5 1 1</rect></_>
    <_>
      <rect>
        0 5 3 5</rect></_>
    <_>
      <rect>
        0 7 3 3</rect></_>
    <_>
      <rect>
        0 7 5 4</rect></_>
    <_>
      <rect>
        0 9 4 4</rect></_>
    <_>
      <rect>
        0 11 4 3</rect></_>
    <_>
      <rect>
        1 5 1 1</rect></_>
    <_>
      <rect>
        1 5 2 2</rect></_>
    <_>
      <rect>
        1 6 10 6</rect></_>
    <_>
      <rect>
        1 8 5 4</rect></_>
    <_>
      <rect>
        1 10 1 1</rect></_>
    <_>
      <rect>
        1 15 3 3</rect></_>
    <_>
      <rect>
        1 17 2 2</rect></_>
    <_>
      <rect>
        2 0 6 3</rect></_>
    <_>
      <rect>
        2 1 7 7</rect></_>
    <_>
      <rect>
        2 1 8 7</rect></_>
    <_>
      <rect>
        2 2 2 2</rect></_>
    <_>
      <rect>
        2 8 4 2</rect></_>
    <_>
      <rect>
        2 17 10 2</rect></_>
    <_>
      <rect>
        2 18 8 2</rect></_>
    <_>
      <rect>
        2 21 1 1</rect></_>
    <_>
      <rect>
        3 0 2 2</rect></_>
    <_>
      <rect>
        3 0 5 7</rect></_>
    <_>
      <rect>
        3 1 2 2</rect></_>
    <_>
      <rect>
        3 1 5 4</rect></_>
    <_>
      <rect>
        3 4 2 3</rect></_>
    <_>
      <rect>
        3 4 5 5</rect></_>
    <_>
      <rect>
        3 9 3 3</rect></_>
    <_>
      <rect>
        3 18 3 2</rect></_>
    <_>
      <rect>
        4 3 1 1</rect></_>
    <_>
      <rect>
        4 3 5 7</rect></_>
    <_>
      <rect>
        4 4 6 3</rect></_>
    <_>
      <rect>
        4 9 6 5</rect></_>
    <_>
      <rect>
        4 10 2 2</rect></_>
    <_>
      <rect>
        4 13 1 2</rect></_>
    <_>
      <rect>
        4 17 1 1</rect></_>
    <_>
      <rect>
        5 4 3 3</rect></_>
    <_>
      <rect>
        5 10 2 2</rect></_>
    <_>
      <rect>
        6 1 8 7</rect></_>
    <_>
      <rect>
        6 7 1 1</rect></_>
    <_>
      <rect>
        6 8 8 5</rect></_>
    <_>
      <rect>
        6 13 2 2</rect></_>
    <_>
      <rect>
        6 15 1 1</rect></_>
    <_>
      <rect>
        6 15 6 3</rect></_>
    <_>
      <rect>
        7 0 8 6</rect></_>
    <_>
      <rect>
        7 1 1 1</rect></_>
    <_>
      <rect>
        7 1 2 3</rect></_>
    <_>
      <rect>
        7 1 3 6</rect></_>
    <_>
      <rect>
        7 6 4 6</rect></_>
    <_>
      <rect>
        7 7 1 1</rect></_>
    <_>
      <rect>
        7 10 3 3</rect></_>
    <_>
      <rect>
        7 11 1 1</rect></_>
    <_>
      <rect>
        7 13 1 1</rect></_>
    <_>
      <rect>
        7 14 1 1</rect></_>
    <_>
      <rect>
        7 14 3 3</rect></_>
    <_>
      <rect>
        8 2 2 2</rect></_>
    <_>
      <rect>
        8 2 3 3</rect></_>
    <_>
      <rect>
        8 3 7 7</rect></_>
    <_>
      <rect>
        8 5 2 2</rect></_>
    <_>
      <rect>
        8 6 1 1</rect></_>
    <_>
      <rect>
        8 6 4 5</rect></_>
    <_>
      <rect>
        8 8 5 5</rect></_>
    <_>
      <rect>
        8 8 8 4</rect></_>
    <_>
      <rect>
        8 11 2 2</rect></_>
    <_>
      <rect>
        8 13 2 3</rect></_>
    <_>
      <rect>
        8 15 4 3</rect></_>
    <_>
      <rect>
        8 20 1 1</rect></_>
    <_>
      <rect>
        9 3 1 1</rect></_>
    <_>
      <rect>
        9 3 5 5</rect></_>
    <_>
      <rect>
        9 5 2 5</rect></_>
    <_>
      <rect>
        9 9 2 2</rect></_>
    <_>
      <rect>
        9 12 2 2</rect></_>
    <_>
      <rect>
        9 14 1 1</rect></_>
    <_>
      <rect>
        9 14 3 3</rect></_>
    <_>
      <rect>
        9 15 1 1</rect></_>
    <_>
      <rect>
        9 21 2 1</rect></_>
    <_>
      <rect>
        10 0 3 3</rect></_>
    <_>
      <rect>
        10 0 6 5</rect></_>
    <_>
      <rect>
        10 2 3 3</rect></_>
    <_>
      <rect>
        10 3 3 4</rect></_>
    <_>
      <rect>
        10 3 5 3</rect></_>
    <_>
      <rect>
        10 3 5 6</rect></_>
    <_>
      <rect>
        10 4 3 6</rect></_>
    <_>
      <rect>
        10 8 4 4</rect></_>
    <_>
      <rect>
        11 0 3 3</rect></_>
    <_>
      <rect>
        11 1 5 6</rect></_>
    <_>
      <rect>
        11 2 1 1</rect></_>
    <_>
      <rect>
        11 3 3 2</rect></_>
    <_>
      <rect>
        11 4 3 3</rect></_>
    <_>
      <rect>
        11 5 6 4</rect></_>
    <_>
      <rect>
        12 0 6 8</rect></_>
    <_>
      <rect>
        12 5 1 1</rect></_>
    <_>
      <rect>
        12 8 2 2</rect></_>
    <_>
      <rect>
        12 15 1 1</rect></_>
    <_>
      <rect>
        13 0 6 6</rect></_>
    <_>
      <rect>
        13 2 5 6</rect></_>
    <_>
      <rect>
        13 3 3 2</rect></_>
    <_>
      <rect>
        13 5 3 5</rect></_>
    <_>
      <rect>
        13 6 3 4</rect></_>
    <_>
      <rect>
        13 7 4 2</rect></_>
    <_>
      <rect>
        13 11 3 3</rect></_>
    <_>
      <rect>
        13 13 1 1</rect></_>
    <_>
      <rect>
        13 15 1 1</rect></_>
    <_>
      <rect>
        13 19 1 1</rect></_>
    <_>
      <rect>
        14 1 1 1</rect></_>
    <_>
      <rect>
        14 6 1 1</rect></_>
    <_>
      <rect>
        14 6 5 4</rect></_>
    <_>
      <rect>
        14 16 1 1</rect></_>
    <_>
      <rect>
        14 17 3 2</rect></_>
    <_>
      <rect>
        14 18 1 1</rect></_>
    <_>
      <rect>
        15 2 5 5</rect></_>
    <_>
      <rect>
        15 13 2 2</rect></_>
    <_>
      <rect>
        15 15 2 3</rect></_>
    <_>
      <rect>
        16 0 2 2</rect></_>
    <_>
      <rect>
        16 6 4 3</rect></_>
    <_>
      <rect>
        16 6 5 5</rect></_>
    <_>
      <rect>
        16 7 1 1</rect></_>
    <_>
      <rect>
        16 7 2 2</rect></_>
    <_>
      <rect>
        16 8 3 5</rect></_>
    <_>
      <rect>
        16 13 1 1</rect></_>
    <_>
      <rect>
        17 0 1 1</rect></_>
    <_>
      <rect>
        17 1 5 4</rect></_>
    <_>
      <rect>
        17 2 3 5</rect></_>
    <_>
      <rect>
        17 4 4 3</rect></_>
    <_>
      <rect>
        17 7 1 1</rect></_>
    <_>
      <rect>
        17 14 1 1</rect></_>
    <_>
      <rect>
        17 20 1 1</rect></_>
    <_>
      <rect>
        18 0 4 7</rect></_>
    <_>
      <rect>
        18 6 3 3</rect></_>
    <_>
      <rect>
        18 9 1 1</rect></_>
    <_>
      <rect>
        18 13 3 3</rect></_>
    <_>
      <rect>
        18 16 3 2</rect></_>
    <_>
      <rect>
        19 3 1 1</rect></_>
    <_>
      <rect>
        19 4 3 3</rect></_>
    <_>
      <rect>
        19 5 1 1</rect></_>
    <_>
      <rect>
        19 10 1 1</rect></_>
    <_>
      <rect>
        19 12 1 1</rect></_>
    <_>
      <rect>
        20 9 4 5</rect></_>
    <_>
      <rect>
        20 11 2 3</rect></_>
    <_>
      <rect>
        20 12 3 3</rect></_>
    <_>
      <rect>
        20 13 4 2</rect></_>
    <_>
      <rect>
        20 14 3 3</rect></_>
    <_>
      <rect>
        20 15 4 3</rect></_>
    <_>
      <rect>
        21 8 1 1</rect></_>
    <_>
      <rect>
        21 10 2 2</rect></_>
    <_>
      <rect>
        21 11 3 2</rect></_>
    <_>
      <rect>
        21 16 1 1</rect></_>
    <_>
      <rect>
        22 0 2 1</rect></_>
    <_>
      <rect>
        22 4 2 2</rect></_>
    <_>
      <rect>
        22 11 3 1</rect></_>
    <_>
      <rect>
        23 2 1 1</rect></_>
    <_>
      <rect>
        23 5 3 4</rect></_>
    <_>
      <rect>
        23 6 1 1</rect></_>
    <_>
      <rect>
        23 6 3 4</rect></_>
    <_>
      <rect>
        23 9 1 1</rect></_>
    <_>
      <rect>
        23 14 3 3</rect></_>
    <_>
      <rect>
        23 17 2 2</rect></_>
    <_>
      <rect>
        23 18 2 2</rect></_>
    <_>
      <rect>
        24 0 2 4</rect></_>
    <_>
      <rect>
        24 0 2 6</rect></_>
    <_>
      <rect>
        24 7 1 1</rect></_>
    <_>
      <rect>
        24 13 1 1</rect></_>
    <_>
      <rect>
        24 15 1 1</rect></_>
    <_>
      <rect>
        25 1 2 2</rect></_>
    <_>
      <rect>
        25 2 1 2</rect></_>
    <_>
      <rect>
        25 2 2 4</rect></_>
    <_>
      <rect>
        25 5 2 2</rect></_>
    <_>
      <rect>
        25 7 1 1</rect></_>
    <_>
      <rect>
        25 15 1 1</rect></_>
    <_>
      <rect>
        26 2 1 1</rect></_>
    <_>
      <rect>
        26 6 1 1</rect></_>
    <_>
      <rect>
        26 18 2 2</rect></_>
    <_>
      <rect>
        28 4 1 1</rect></_>
    <_>
      <rect>
        29 1 1 1</rect></_></features></cascade>
</opencv_storage>
