<?xml version="1.0"?>
<opencv_storage>
<cascade>
  <stageType>BOOST</stageType>
  <featureType>LBP</featureType>
  <height>24</height>
  <width>32</width>
  <stageParams>
    <boostType>GAB</boostType>
    <minHitRate>9.9500000476837158e-01</minHitRate>
    <maxFalseAlarm>5.0000000000000000e-01</maxFalseAlarm>
    <weightTrimRate>9.4999999999999996e-01</weightTrimRate>
    <maxDepth>1</maxDepth>
    <maxWeakCount>100</maxWeakCount></stageParams>
  <featureParams>
    <maxCatCount>256</maxCatCount>
    <featSize>1</featSize></featureParams>
  <stageNum>20</stageNum>
  <stages>
    <!-- stage 0 -->
    <_>
      <maxWeakCount>2</maxWeakCount>
      <stageThreshold>-5.7909017801284790e-01</stageThreshold>
      <weakClassifiers>
        <_>
          <internalNodes>
            0 -1 48 1347639073 -611899567 -1795058857 -652660459
            -628375347 -939360251 -1068728085 -14691957</internalNodes>
          <leafValues>
            -7.8688526153564453e-01 3.6781609058380127e-01</leafValues></_>
        <_>
          <internalNodes>
            0 -1 1 -1912427642 -502160608 -1585364427 -1208913902
            159630525 1073807456 12390570 528452142</internalNodes>
          <leafValues>
            -9.4690626859664917e-01 2.7641752362251282e-01</leafValues></_></weakClassifiers></_>
    <!-- stage 1 -->
    <_>
      <maxWeakCount>4</maxWeakCount>
      <stageThreshold>-7.1076613664627075e-01</stageThreshold>
      <weakClassifiers>
        <_>
          <internalNodes>
            0 -1 9 -139208714 -1040002286 -1912340334 -360647168
            721488015 -729708541 -1981101621 -129507061</internalNodes>
          <leafValues>
            -8.4528303146362305e-01 1.2598425149917603e-01</leafValues></_>
        <_>
          <internalNodes>
            0 -1 58 669125971 -1693708258 7017471 -107808880 -1043763206
            422179355 -840418847 -285427100</internalNodes>
          <leafValues>
            -6.6419070959091187e-01 5.1537251472473145e-01</leafValues></_>
        <_>
          <internalNodes>
            0 -1 31 -73277184 -1760435326 608337941 -189161469 65734125
            715685955 1623288463 -346592737</internalNodes>
          <leafValues>
            -6.8080395460128784e-01 5.6254327297210693e-01</leafValues></_>
        <_>
          <internalNodes>
            0 -1 30 1432762007 1903133055 -1464123373 -134561774
            143024848 259705121 1728251187 -168833461</internalNodes>
          <leafValues>
            -6.7131894826889038e-01 6.0651063919067383e-01</leafValues></_></weakClassifiers></_>
    <!-- stage 2 -->
    <_>
      <maxWeakCount>4</maxWeakCount>
      <stageThreshold>-7.4228453636169434e-01</stageThreshold>
      <weakClassifiers>
        <_>
          <internalNodes>
            0 -1 74 762219831 865983327 -586210477 -91191260 -1363445131
            -90019353 -254925927 -1074270296</internalNodes>
          <leafValues>
            -7.9216355085372925e-01 2.4873095750808716e-01</leafValues></_>
        <_>
          <internalNodes>
            0 -1 24 606920450 894089136 -1810588389 -577463679
            -530467841 262185137 -519740945 2043146763</internalNodes>
          <leafValues>
            -8.0308830738067627e-01 3.9696285128593445e-01</leafValues></_>
        <_>
          <internalNodes>
            0 -1 42 -1946775971 1859259729 -255940301 -245452342
            -1572622363 994986569 -1033712924 -1395233736</internalNodes>
          <leafValues>
            -6.7610073089599609e-01 5.3922110795974731e-01</leafValues></_>
        <_>
          <internalNodes>
            0 -1 40 748875041 -1895823486 -1947169379 -1697590180
            -1272166467 -154251952 952125044 -76614464</internalNodes>
          <leafValues>
            -7.1187758445739746e-01 5.7582449913024902e-01</leafValues></_></weakClassifiers></_>
    <!-- stage 3 -->
    <_>
      <maxWeakCount>4</maxWeakCount>
      <stageThreshold>-1.6992785930633545e+00</stageThreshold>
      <weakClassifiers>
        <_>
          <internalNodes>
            0 -1 18 -338302469 2030147995 -216857097 -1221227133
            630965989 533018772 1619665031 -238028466</internalNodes>
          <leafValues>
            -7.8187918663024902e-01 2.6595744490623474e-01</leafValues></_>
        <_>
          <internalNodes>
            0 -1 65 -2064999067 -604986542 -1851308065 -136270809
            1200187833 -340694499 -1150838724 -1413729532</internalNodes>
          <leafValues>
            -7.6710736751556396e-01 4.2167031764984131e-01</leafValues></_>
        <_>
          <internalNodes>
            0 -1 51 623270247 -1140080171 -450234537 2026696012
            -929791688 -365238514 -20812592 -1210006672</internalNodes>
          <leafValues>
            -6.7136722803115845e-01 5.4743343591690063e-01</leafValues></_>
        <_>
          <internalNodes>
            0 -1 50 -2029838317 658656691 1887371707 -124198750
            143044735 1998291161 -2007873004 -421019356</internalNodes>
          <leafValues>
            -6.9772553443908691e-01 5.7576686143875122e-01</leafValues></_></weakClassifiers></_>
    <!-- stage 4 -->
    <_>
      <maxWeakCount>5</maxWeakCount>
      <stageThreshold>-1.1712430715560913e+00</stageThreshold>
      <weakClassifiers>
        <_>
          <internalNodes>
            0 -1 66 -1079510081 631943952 -1897818057 -1342510256
            1271556793 -1463356563 -247466947 -388910000</internalNodes>
          <leafValues>
            -7.6298701763153076e-01 3.2142856717109680e-01</leafValues></_>
        <_>
          <internalNodes>
            0 -1 59 -940760023 1002489687 791368982 965399028 1619634199
            972837976 -253194221 -20190699</internalNodes>
          <leafValues>
            -7.4860990047454834e-01 4.5059385895729065e-01</leafValues></_>
        <_>
          <internalNodes>
            0 -1 21 -978889419 1634488911 1638274464 750525800
            -1987817579 1651623103 1017017697 -5031078</internalNodes>
          <leafValues>
            -7.2940492630004883e-01 5.1035821437835693e-01</leafValues></_>
        <_>
          <internalNodes>
            0 -1 57 -1467734243 1608683087 -733768747 -213712405
            1922632669 960604046 1351617735 -572822860</internalNodes>
          <leafValues>
            -6.8853360414505005e-01 5.7195037603378296e-01</leafValues></_>
        <_>
          <internalNodes>
            0 -1 60 1355826295 -1956130541 1074069557 1982169090
            677685445 -195016320 1613453720 -133530240</internalNodes>
          <leafValues>
            -6.6118210554122925e-01 6.7387682199478149e-01</leafValues></_></weakClassifiers></_>
    <!-- stage 5 -->
    <_>
      <maxWeakCount>4</maxWeakCount>
      <stageThreshold>-7.8941977024078369e-01</stageThreshold>
      <weakClassifiers>
        <_>
          <internalNodes>
            0 -1 2 -156570922 -786651711 -1735048889 396409088
            -1438248706 990087312 -350648033 -79175073</internalNodes>
          <leafValues>
            -8.4526109695434570e-01 7.8651688992977142e-02</leafValues></_>
        <_>
          <internalNodes>
            0 -1 44 259859741 621183996 -1270057038 -592445127 753298717
            -676329575 -1463834668 -25576708</internalNodes>
          <leafValues>
            -6.8701350688934326e-01 4.6826994419097900e-01</leafValues></_>
        <_>
          <internalNodes>
            0 -1 23 472640327 657145128 -1726364065 -243127784
            1756169041 1601086288 129865560 -168871370</internalNodes>
          <leafValues>
            -6.5858310461044312e-01 5.7640314102172852e-01</leafValues></_>
        <_>
          <internalNodes>
            0 -1 75 37374271 -1449491554 -1481585803 -1263368382
            -283391201 244473985 -853114076 -353083536</internalNodes>
          <leafValues>
            -6.7775827646255493e-01 5.9752565622329712e-01</leafValues></_></weakClassifiers></_>
    <!-- stage 6 -->
    <_>
      <maxWeakCount>3</maxWeakCount>
      <stageThreshold>-1.0590399503707886e+00</stageThreshold>
      <weakClassifiers>
        <_>
          <internalNodes>
            0 -1 43 -663421451 -787430511 -787410697 -1524834795
            -641144664 -544636736 -477241667 -853813100</internalNodes>
          <leafValues>
            -7.9863482713699341e-01 2.6262626051902771e-01</leafValues></_>
        <_>
          <internalNodes>
            0 -1 46 -1737293513 -1929174821 956727551 -35876605
            1619748647 -913740672 -121101885 -405015855</internalNodes>
          <leafValues>
            -6.2789231538772583e-01 5.2906787395477295e-01</leafValues></_>
        <_>
          <internalNodes>
            0 -1 53 -1789740442 702412697 1229490113 -6294680 450233220
            -766713774 -1589223930 -324167390</internalNodes>
          <leafValues>
            -6.9377386569976807e-01 5.1636689901351929e-01</leafValues></_></weakClassifiers></_>
    <!-- stage 7 -->
    <_>
      <maxWeakCount>3</maxWeakCount>
      <stageThreshold>-1.1073964834213257e+00</stageThreshold>
      <weakClassifiers>
        <_>
          <internalNodes>
            0 -1 45 -1991295497 -1408235085 251691425 -242241271
            -1266433585 1703060630 -7523573 -1188665</internalNodes>
          <leafValues>
            -7.6451075077056885e-01 2.4861878156661987e-01</leafValues></_>
        <_>
          <internalNodes>
            0 -1 56 -1071644845 782796117 1927536975 -40148883
            -1872745453 691700405 -507635303 -432543694</internalNodes>
          <leafValues>
            -6.7601341009140015e-01 4.7406539320945740e-01</leafValues></_>
        <_>
          <internalNodes>
            0 -1 10 -1282239627 1006248754 268571889 1412626669
            1737049025 944510011 -1769917979 -1343251087</internalNodes>
          <leafValues>
            -6.8000179529190063e-01 5.5461400747299194e-01</leafValues></_></weakClassifiers></_>
    <!-- stage 8 -->
    <_>
      <maxWeakCount>2</maxWeakCount>
      <stageThreshold>-6.6168272495269775e-01</stageThreshold>
      <weakClassifiers>
        <_>
          <internalNodes>
            0 -1 14 1984161099 -64696039 295118462 -591484218 1127134409
            -1093096304 -288562997 -292573481</internalNodes>
          <leafValues>
            -7.8424656391143799e-01 2.0999999344348907e-01</leafValues></_>
        <_>
          <internalNodes>
            0 -1 49 2136795500 -105775077 -670837035 734038108
            -1341461864 -922328952 -2088147299 -1357088344</internalNodes>
          <leafValues>
            -8.7168276309967041e-01 2.8797382116317749e-01</leafValues></_></weakClassifiers></_>
    <!-- stage 9 -->
    <_>
      <maxWeakCount>4</maxWeakCount>
      <stageThreshold>-9.4886636734008789e-01</stageThreshold>
      <weakClassifiers>
        <_>
          <internalNodes>
            0 -1 19 -439464041 674829431 -651714155 -13258020 1232691377
            -1127160577 1906789975 -2102669</internalNodes>
          <leafValues>
            -7.7777779102325439e-01 1.9597989320755005e-01</leafValues></_>
        <_>
          <internalNodes>
            0 -1 20 -912826290 84623784 680995070 673605428 -1338829811
            1041992993 -80813795 -337124693</internalNodes>
          <leafValues>
            -8.4435582160949707e-01 2.7721703052520752e-01</leafValues></_>
        <_>
          <internalNodes>
            0 -1 54 1957119071 -235224603 85770348 -1516364601
            1767256075 -852932095 1486870038 -568070435</internalNodes>
          <leafValues>
            -6.0642212629318237e-01 5.3373414278030396e-01</leafValues></_>
        <_>
          <internalNodes>
            0 -1 69 1541538828 -2004413781 -1957664045 -505692333
            -803141223 -488553979 1526771904 -1631816752</internalNodes>
          <leafValues>
            -8.1564122438430786e-01 4.2039090394973755e-01</leafValues></_></weakClassifiers></_>
    <!-- stage 10 -->
    <_>
      <maxWeakCount>5</maxWeakCount>
      <stageThreshold>-1.2497301101684570e+00</stageThreshold>
      <weakClassifiers>
        <_>
          <internalNodes>
            0 -1 22 -1860128264 -1760403156 -322858982 -96918196
            -292243430 1539947657 -356942891 -6364932</internalNodes>
          <leafValues>
            -8.3464568853378296e-01 2.8985507786273956e-02</leafValues></_>
        <_>
          <internalNodes>
            0 -1 7 -842484514 -594618102 1355313278 -670826338
            -1060203826 2013921410 -1463032442 -719744701</internalNodes>
          <leafValues>
            -7.9154002666473389e-01 3.2577174901962280e-01</leafValues></_>
        <_>
          <internalNodes>
            0 -1 32 -308297189 1062914307 -243233923 -637450888
            1199571517 -1710161855 218679405 -859944342</internalNodes>
          <leafValues>
            -6.1046403646469116e-01 5.5759662389755249e-01</leafValues></_>
        <_>
          <internalNodes>
            0 -1 5 -278136558 -1280932121 844190066 -1114508475
            834800183 810272824 818608489 -941399710</internalNodes>
          <leafValues>
            -6.5235561132431030e-01 5.5651891231536865e-01</leafValues></_>
        <_>
          <internalNodes>
            0 -1 27 649828016 -1822975409 -878345707 -1501885740
            -738111296 -1061153151 -1650163047 -1228624720</internalNodes>
          <leafValues>
            -7.5489133596420288e-01 5.2196347713470459e-01</leafValues></_></weakClassifiers></_>
    <!-- stage 11 -->
    <_>
      <maxWeakCount>4</maxWeakCount>
      <stageThreshold>-7.2638738155364990e-01</stageThreshold>
      <weakClassifiers>
        <_>
          <internalNodes>
            0 -1 26 -271646891 -154658297 -182890727 2094911878
            -1416397946 -74888648 -1311906306 -1114771667</internalNodes>
          <leafValues>
            -7.4917489290237427e-01 2.1348313987255096e-01</leafValues></_>
        <_>
          <internalNodes>
            0 -1 33 243724128 1839509842 -519960249 1892847616
            -128460401 -641186802 1972144362 -3761930</internalNodes>
          <leafValues>
            -7.5933498144149780e-01 3.5525840520858765e-01</leafValues></_>
        <_>
          <internalNodes>
            0 -1 71 34370101 936442193 33641209 1529403672 -1197249681
            2145523693 1518537948 -591212594</internalNodes>
          <leafValues>
            -6.1057561635971069e-01 5.4638391733169556e-01</leafValues></_>
        <_>
          <internalNodes>
            0 -1 37 834171704 -1416001378 -736896767 -475294934
            -349995331 -1554824993 294332823 -138890140</internalNodes>
          <leafValues>
            -6.8455332517623901e-01 5.1386725902557373e-01</leafValues></_></weakClassifiers></_>
    <!-- stage 12 -->
    <_>
      <maxWeakCount>5</maxWeakCount>
      <stageThreshold>-1.1928162574768066e+00</stageThreshold>
      <weakClassifiers>
        <_>
          <internalNodes>
            0 -1 12 -812189697 1033949501 126297247 -255735696
            2116336563 -887019096 -1045625810 -216817117</internalNodes>
          <leafValues>
            -7.5124377012252808e-01 2.0441989600658417e-01</leafValues></_>
        <_>
          <internalNodes>
            0 -1 55 -994002945 -821027735 -343438821 -1646982892
            -938638735 -2003206076 -1996303206 -1122629002</internalNodes>
          <leafValues>
            -6.5367376804351807e-01 4.5122843980789185e-01</leafValues></_>
        <_>
          <internalNodes>
            0 -1 72 -1600821964 -1957918532 -1046201153 -1851423397
            277429178 -115434867 2039298543 -1142138712</internalNodes>
          <leafValues>
            -6.7775911092758179e-01 5.0511735677719116e-01</leafValues></_>
        <_>
          <internalNodes>
            0 -1 68 -1116637384 1468583068 -1448212926 -77456192
            -1289570686 -97937215 -1660187994 -1611881272</internalNodes>
          <leafValues>
            -6.5452182292938232e-01 5.4702115058898926e-01</leafValues></_>
        <_>
          <internalNodes>
            0 -1 4 1526776616 -189789899 -1056778533 -187924464
            1032848208 -805242880 -1811752687 -1384228799</internalNodes>
          <leafValues>
            -7.6206296682357788e-01 5.1803016662597656e-01</leafValues></_></weakClassifiers></_>
    <!-- stage 13 -->
    <_>
      <maxWeakCount>3</maxWeakCount>
      <stageThreshold>-1.2527884244918823e+00</stageThreshold>
      <weakClassifiers>
        <_>
          <internalNodes>
            0 -1 29 -1317822983 1730138263 939592593 -19221155
            -1026785037 -662298422 1654322123 -2393345</internalNodes>
          <leafValues>
            -7.2870659828186035e-01 3.0666667222976685e-01</leafValues></_>
        <_>
          <internalNodes>
            0 -1 25 -965150308 -587198336 -805267448 470196235
            -536465738 -593909623 -1601441619 -676202081</internalNodes>
          <leafValues>
            -8.4298539161682129e-01 3.0438411235809326e-01</leafValues></_>
        <_>
          <internalNodes>
            0 -1 3 -426180954 -1373470438 -325533665 -821407743
            1829103807 1613314436 1619656840 261990464</internalNodes>
          <leafValues>
            -8.8664239645004272e-01 3.1890359520912170e-01</leafValues></_></weakClassifiers></_>
    <!-- stage 14 -->
    <_>
      <maxWeakCount>4</maxWeakCount>
      <stageThreshold>-7.7747154235839844e-01</stageThreshold>
      <weakClassifiers>
        <_>
          <internalNodes>
            0 -1 73 -87093891 -182516837 -738012720 -3448140 -1073158166
            -1517207399 -687306033 -275784785</internalNodes>
          <leafValues>
            -7.4308943748474121e-01 2.4260355532169342e-01</leafValues></_>
        <_>
          <internalNodes>
            0 -1 41 5637378 891680798 966013155 1809024065 -390270753
            -525287197 1082150299 1828768614</internalNodes>
          <leafValues>
            -8.9829933643341064e-01 2.7160099148750305e-01</leafValues></_>
        <_>
          <internalNodes>
            0 -1 67 1590887545 340464605 1778647676 -1547419160
            -258447931 -1035779939 -903753487 -408303300</internalNodes>
          <leafValues>
            -6.4163857698440552e-01 4.9377146363258362e-01</leafValues></_>
        <_>
          <internalNodes>
            0 -1 35 -1324154420 -1759771625 994423059 -808086526
            1761702622 -342783959 -1859468511 -1074079010</internalNodes>
          <leafValues>
            -6.5003752708435059e-01 5.4969114065170288e-01</leafValues></_></weakClassifiers></_>
    <!-- stage 15 -->
    <_>
      <maxWeakCount>5</maxWeakCount>
      <stageThreshold>-1.2821209430694580e+00</stageThreshold>
      <weakClassifiers>
        <_>
          <internalNodes>
            0 -1 0 -816579621 -16191421 -117360633 837153623 822108225
            -2140503413 -985197840 -1476342233</internalNodes>
          <leafValues>
            -8.0036967992782593e-01 6.9958850741386414e-02</leafValues></_>
        <_>
          <internalNodes>
            0 -1 63 -1355450305 -1539181624 2073839061 -1476337088
            1276209500 1224926045 1296902356 -896209549</internalNodes>
          <leafValues>
            -6.7225950956344604e-01 3.9651471376419067e-01</leafValues></_>
        <_>
          <internalNodes>
            0 -1 38 -286283655 -6291842 -69643 -827130398 1879015388
            2008936445 -36200986 -117441538</internalNodes>
          <leafValues>
            -5.4702806472778320e-01 6.2469696998596191e-01</leafValues></_>
        <_>
          <internalNodes>
            0 -1 70 1037370935 -377179530 -545025715 1399384241
            -1056678022 -92197688 -1893144157 -2124061062</internalNodes>
          <leafValues>
            -6.9691723585128784e-01 5.3556483983993530e-01</leafValues></_>
        <_>
          <internalNodes>
            0 -1 11 -778596129 -267265899 -1731110634 2030080658
            600084586 639959108 -1610087605 683537243</internalNodes>
          <leafValues>
            -6.0760003328323364e-01 6.0518813133239746e-01</leafValues></_></weakClassifiers></_>
    <!-- stage 16 -->
    <_>
      <maxWeakCount>5</maxWeakCount>
      <stageThreshold>-1.2027764320373535e+00</stageThreshold>
      <weakClassifiers>
        <_>
          <internalNodes>
            0 -1 62 -848833049 1930801463 1905557973 -1148947432
            923376382 -1576030784 -1614130947 -69099024</internalNodes>
          <leafValues>
            -7.6293820142745972e-01 2.2162161767482758e-01</leafValues></_>
        <_>
          <internalNodes>
            0 -1 34 -1554823461 -1285516273 -2129425121 -1803159210
            763416750 474122113 147312858 -1554195401</internalNodes>
          <leafValues>
            -6.4903956651687622e-01 4.5529615879058838e-01</leafValues></_>
        <_>
          <internalNodes>
            0 -1 8 1913288021 2064657698 -1333434355 -399798124
            778776939 1757545301 1925336570 -285917085</internalNodes>
          <leafValues>
            -6.4398705959320068e-01 4.9430683255195618e-01</leafValues></_>
        <_>
          <internalNodes>
            0 -1 13 1931650880 -102018092 -796684271 1800154013
            -224678754 -1971224445 293725228 -150482647</internalNodes>
          <leafValues>
            -6.4514762163162231e-01 5.3505533933639526e-01</leafValues></_>
        <_>
          <internalNodes>
            0 -1 47 324079623 81413340 -804920492 -553744242 -670562007
            -1732017216 -1904072174 -273184764</internalNodes>
          <leafValues>
            -6.2451773881912231e-01 5.8401376008987427e-01</leafValues></_></weakClassifiers></_>
    <!-- stage 17 -->
    <_>
      <maxWeakCount>4</maxWeakCount>
      <stageThreshold>-9.3814307451248169e-01</stageThreshold>
      <weakClassifiers>
        <_>
          <internalNodes>
            0 -1 15 -1975027889 352931649 -1327233601 -539723757
            1535591133 1604847620 -1366748506 -5247081</internalNodes>
          <leafValues>
            -7.4916386604309082e-01 1.7204301059246063e-01</leafValues></_>
        <_>
          <internalNodes>
            0 -1 18 -300834065 368677713 -414180875 -1338161033
            1738502615 444805813 1155408007 1743611142</internalNodes>
          <leafValues>
            -7.5073033571243286e-01 3.3786731958389282e-01</leafValues></_>
        <_>
          <internalNodes>
            0 -1 64 1728259435 246567134 -1184296622 928723522 325271821
            -2104966737 -1417053260 -1382493276</internalNodes>
          <leafValues>
            -6.8214493989944458e-01 4.5599007606506348e-01</leafValues></_>
        <_>
          <internalNodes>
            0 -1 52 -1452921278 -1899380180 251675069 -124170413
            411152948 -1391804285 145035535 -581680405</internalNodes>
          <leafValues>
            -7.6590847969055176e-01 4.2958313226699829e-01</leafValues></_></weakClassifiers></_>
    <!-- stage 18 -->
    <_>
      <maxWeakCount>4</maxWeakCount>
      <stageThreshold>-1.2453099489212036e+00</stageThreshold>
      <weakClassifiers>
        <_>
          <internalNodes>
            0 -1 16 1360254904 335877477 815641886 -1362577665
            -1727604372 2051572753 -48589361 -722044029</internalNodes>
          <leafValues>
            -8.7583148479461670e-01 -6.3063062727451324e-02</leafValues></_>
        <_>
          <internalNodes>
            0 -1 22 -520044624 -1853267000 -2055102438 -560999969
            -1029115878 1367507145 1444826065 -551574996</internalNodes>
          <leafValues>
            -6.9878488779067993e-01 3.2759004831314087e-01</leafValues></_>
        <_>
          <internalNodes>
            0 -1 28 -2066680144 -2019485400 -268057249 -895453096
            1023585024 1670914443 61104916 -319560303</internalNodes>
          <leafValues>
            -7.8127664327621460e-01 3.6936861276626587e-01</leafValues></_>
        <_>
          <internalNodes>
            0 -1 39 -263114699 1795391568 -1593374444 -1369124976
            -1027094352 1392713793 -502920526 374271810</internalNodes>
          <leafValues>
            -7.2856026887893677e-01 4.6893072128295898e-01</leafValues></_></weakClassifiers></_>
    <!-- stage 19 -->
    <_>
      <maxWeakCount>4</maxWeakCount>
      <stageThreshold>-6.9156014919281006e-01</stageThreshold>
      <weakClassifiers>
        <_>
          <internalNodes>
            0 -1 17 -1857983777 -241859709 -1241427623 -1143897149
            -1034767361 -1329880935 1218091995 -32903285</internalNodes>
          <leafValues>
            -6.9415295124053955e-01 4.0170940756797791e-01</leafValues></_>
        <_>
          <internalNodes>
            0 -1 6 -2091477514 -1006349480 142607000 -96272113
            1883500817 -1710583790 -486369639 2092835519</internalNodes>
          <leafValues>
            -7.8560227155685425e-01 3.5000923275947571e-01</leafValues></_>
        <_>
          <internalNodes>
            0 -1 61 428231765 1789645654 -913255713 -573144998
            -2096434297 -276133814 61693257 -1705285539</internalNodes>
          <leafValues>
            -6.3864237070083618e-01 5.0595855712890625e-01</leafValues></_>
        <_>
          <internalNodes>
            0 -1 36 -1655276328 -1222055620 -1039885891 554048510
            -1821390367 -1416978269 1625928449 -1143737233</internalNodes>
          <leafValues>
            -8.0463647842407227e-01 4.1027390956878662e-01</leafValues></_></weakClassifiers></_></stages>
  <features>
    <_>
      <rect>
        0 0 2 2</rect></_>
    <_>
      <rect>
        0 0 6 4</rect></_>
    <_>
      <rect>
        0 0 7 8</rect></_>
    <_>
      <rect>
        0 1 5 4</rect></_>
    <_>
      <rect>
        0 2 2 1</rect></_>
    <_>
      <rect>
        0 3 3 2</rect></_>
    <_>
      <rect>
        0 4 1 1</rect></_>
    <_>
      <rect>
        0 6 7 6</rect></_>
    <_>
      <rect>
        0 7 2 3</rect></_>
    <_>
      <rect>
        0 7 7 5</rect></_>
    <_>
      <rect>
        0 15 3 3</rect></_>
    <_>
      <rect>
        0 15 6 3</rect></_>
    <_>
      <rect>
        1 2 4 3</rect></_>
    <_>
      <rect>
        1 5 2 2</rect></_>
    <_>
      <rect>
        1 13 8 2</rect></_>
    <_>
      <rect>
        1 18 3 2</rect></_>
    <_>
      <rect>
        2 16 6 2</rect></_>
    <_>
      <rect>
        2 19 2 1</rect></_>
    <_>
      <rect>
        3 0 4 2</rect></_>
    <_>
      <rect>
        3 0 6 2</rect></_>
    <_>
      <rect>
        3 10 7 2</rect></_>
    <_>
      <rect>
        3 15 2 1</rect></_>
    <_>
      <rect>
        3 18 1 1</rect></_>
    <_>
      <rect>
        3 18 2 1</rect></_>
    <_>
      <rect>
        4 0 9 5</rect></_>
    <_>
      <rect>
        4 0 9 8</rect></_>
    <_>
      <rect>
        4 5 2 2</rect></_>
    <_>
      <rect>
        5 4 1 2</rect></_>
    <_>
      <rect>
        5 5 2 1</rect></_>
    <_>
      <rect>
        5 16 1 1</rect></_>
    <_>
      <rect>
        5 21 2 1</rect></_>
    <_>
      <rect>
        6 2 8 5</rect></_>
    <_>
      <rect>
        6 18 2 1</rect></_>
    <_>
      <rect>
        7 3 3 3</rect></_>
    <_>
      <rect>
        7 9 4 2</rect></_>
    <_>
      <rect>
        7 21 1 1</rect></_>
    <_>
      <rect>
        8 0 7 8</rect></_>
    <_>
      <rect>
        8 4 1 1</rect></_>
    <_>
      <rect>
        8 7 8 3</rect></_>
    <_>
      <rect>
        8 8 4 3</rect></_>
    <_>
      <rect>
        9 8 1 1</rect></_>
    <_>
      <rect>
        10 0 7 3</rect></_>
    <_>
      <rect>
        11 7 1 1</rect></_>
    <_>
      <rect>
        11 7 7 5</rect></_>
    <_>
      <rect>
        11 17 1 1</rect></_>
    <_>
      <rect>
        12 2 1 1</rect></_>
    <_>
      <rect>
        12 11 4 2</rect></_>
    <_>
      <rect>
        12 13 1 1</rect></_>
    <_>
      <rect>
        13 0 5 6</rect></_>
    <_>
      <rect>
        13 6 3 6</rect></_>
    <_>
      <rect>
        13 12 2 1</rect></_>
    <_>
      <rect>
        13 14 1 1</rect></_>
    <_>
      <rect>
        14 0 2 1</rect></_>
    <_>
      <rect>
        14 1 1 1</rect></_>
    <_>
      <rect>
        14 2 6 3</rect></_>
    <_>
      <rect>
        14 9 2 1</rect></_>
    <_>
      <rect>
        14 9 5 2</rect></_>
    <_>
      <rect>
        15 0 2 2</rect></_>
    <_>
      <rect>
        16 12 1 1</rect></_>
    <_>
      <rect>
        17 0 4 1</rect></_>
    <_>
      <rect>
        17 2 4 2</rect></_>
    <_>
      <rect>
        17 2 5 4</rect></_>
    <_>
      <rect>
        17 18 5 2</rect></_>
    <_>
      <rect>
        18 5 4 2</rect></_>
    <_>
      <rect>
        18 21 2 1</rect></_>
    <_>
      <rect>
        19 15 1 2</rect></_>
    <_>
      <rect>
        22 7 1 1</rect></_>
    <_>
      <rect>
        22 9 1 1</rect></_>
    <_>
      <rect>
        23 1 1 1</rect></_>
    <_>
      <rect>
        23 3 2 2</rect></_>
    <_>
      <rect>
        23 10 2 2</rect></_>
    <_>
      <rect>
        23 13 3 2</rect></_>
    <_>
      <rect>
        24 10 1 1</rect></_>
    <_>
      <rect>
        26 2 2 2</rect></_>
    <_>
      <rect>
        29 13 1 1</rect></_>
    <_>
      <rect>
        29 18 1 1</rect></_></features></cascade>
</opencv_storage>
