<?xml version="1.0"?>
<opencv_storage>
<cascade>
  <stageType>BOOST</stageType>
  <featureType>LBP</featureType>
  <height>24</height>
  <width>24</width>
  <stageParams>
    <boostType>GAB</boostType>
    <minHitRate>9.9500000476837158e-01</minHitRate>
    <maxFalseAlarm>5.0000000000000000e-01</maxFalseAlarm>
    <weightTrimRate>9.4999999999999996e-01</weightTrimRate>
    <maxDepth>1</maxDepth>
    <maxWeakCount>100</maxWeakCount></stageParams>
  <featureParams>
    <maxCatCount>256</maxCatCount>
    <featSize>1</featSize></featureParams>
  <stageNum>15</stageNum>
  <stages>
    <!-- stage 0 -->
    <_>
      <maxWeakCount>8</maxWeakCount>
      <stageThreshold>-9.0899002552032471e-01</stageThreshold>
      <weakClassifiers>
        <_>
          <internalNodes>
            0 -1 109 -387766489 1624242983 -1836528798 1658498614
            -412665087 1389842243 -1904058 -525075841</internalNodes>
          <leafValues>
            -5.6958585977554321e-01 2.4124513566493988e-01</leafValues></_>
        <_>
          <internalNodes>
            0 -1 8 1879040623 15280879 251575910 183925358 1945325323
            1157445455 1744232199 -51187785</internalNodes>
          <leafValues>
            -4.1979530453681946e-01 4.4078329205513000e-01</leafValues></_>
        <_>
          <internalNodes>
            0 -1 20 -260633553 -1062866969 -687880438 -1997820165
            2130538326 2080339813 -344104332 -457770049</internalNodes>
          <leafValues>
            -3.7366649508476257e-01 4.6001636981964111e-01</leafValues></_>
        <_>
          <internalNodes>
            0 -1 71 -151140537 1617427951 -1123044256 -1062220882
            1251829075 337056501 -77955308 -185139202</internalNodes>
          <leafValues>
            -4.3680763244628906e-01 4.0828555822372437e-01</leafValues></_>
        <_>
          <internalNodes>
            0 -1 144 1987567139 -2130827137 988794635 -2138117121
            2008950039 1139269063 -1393050268 -1032586370</internalNodes>
          <leafValues>
            -3.3549436926841736e-01 5.2741527557373047e-01</leafValues></_>
        <_>
          <internalNodes>
            0 -1 69 1778325508 638990207 315712774 -1429810233
            -690674107 634719808 -210831019 -222889345</internalNodes>
          <leafValues>
            -4.4801864027976990e-01 4.1650095582008362e-01</leafValues></_>
        <_>
          <internalNodes>
            0 -1 5 -486592721 -523473170 -268540318 -292782109
            -405410300 -424185873 -807045518 -1536629265</internalNodes>
          <leafValues>
            -3.9608293771743774e-01 4.7096005082130432e-01</leafValues></_>
        <_>
          <internalNodes>
            0 -1 40 2130650823 752773741 -1131772688 -2138375474
            -394829565 2075250479 -739584254 -2068415513</internalNodes>
          <leafValues>
            -4.3857225775718689e-01 4.4801074266433716e-01</leafValues></_></weakClassifiers></_>
    <!-- stage 1 -->
    <_>
      <maxWeakCount>9</maxWeakCount>
      <stageThreshold>-8.5869598388671875e-01</stageThreshold>
      <weakClassifiers>
        <_>
          <internalNodes>
            0 -1 3 1693781615 1224625663 -992446138 -493188225
            -111254268 1683670151 -33555893 -252707073</internalNodes>
          <leafValues>
            -5.2842378616333008e-01 2.3819516599178314e-01</leafValues></_>
        <_>
          <internalNodes>
            0 -1 100 1753157191 -967225233 -597378294 1078750447
            -618697721 1644938877 -68163772 -529016209</internalNodes>
          <leafValues>
            -4.2499411106109619e-01 3.5291531682014465e-01</leafValues></_>
        <_>
          <internalNodes>
            0 -1 16 -671261009 -1026142657 1828104806 1651440111
            -178389677 1702526334 -67114678 -261177474</internalNodes>
          <leafValues>
            -3.4151986241340637e-01 4.4007152318954468e-01</leafValues></_>
        <_>
          <internalNodes>
            0 -1 19 -184595065 1249680107 1879343818 1626141602
            1920330310 1635856187 -624769753 1651441533</internalNodes>
          <leafValues>
            -4.1526329517364502e-01 3.5203075408935547e-01</leafValues></_>
        <_>
          <internalNodes>
            0 -1 124 1657693702 174852813 -2098027582 1252719223
            2060727872 1146749053 -604926460 619510370</internalNodes>
          <leafValues>
            -5.6652218103408813e-01 2.7553895115852356e-01</leafValues></_>
        <_>
          <internalNodes>
            0 -1 41 -856188817 1793867593 1472089764 -809865418
            2012694343 1962893267 -713693630 -264243205</internalNodes>
          <leafValues>
            -3.5741496086120605e-01 4.4230294227600098e-01</leafValues></_>
        <_>
          <internalNodes>
            0 -1 33 706916140 1827411022 -383525280 14773126 -789419260
            1915919079 -253048252 -1871611092</internalNodes>
          <leafValues>
            -5.8248353004455566e-01 2.7660751342773438e-01</leafValues></_>
        <_>
          <internalNodes>
            0 -1 122 -959492177 1179058143 -939089722 -895359801
            1541564165 1791082574 1531948869 -507322593</internalNodes>
          <leafValues>
            -3.7643119692802429e-01 4.0835657715797424e-01</leafValues></_>
        <_>
          <internalNodes>
            0 -1 89 903841675 -1025834681 -2095863250 -1805988706
            -462164665 1899790636 769831684 905112574</internalNodes>
          <leafValues>
            -4.3449905514717102e-01 3.6635646224021912e-01</leafValues></_></weakClassifiers></_>
    <!-- stage 2 -->
    <_>
      <maxWeakCount>10</maxWeakCount>
      <stageThreshold>-1.0848230123519897e+00</stageThreshold>
      <weakClassifiers>
        <_>
          <internalNodes>
            0 -1 11 -715135281 -465021233 541887106 1645931119
            -148385739 1715785793 -880035317 -159450145</internalNodes>
          <leafValues>
            -4.6791133284568787e-01 2.6810672879219055e-01</leafValues></_>
        <_>
          <internalNodes>
            0 -1 101 -321968058 -279012529 -930803454 42692062
            -732882159 587186769 -638060030 -201851234</internalNodes>
          <leafValues>
            -3.8689842820167542e-01 3.0892840027809143e-01</leafValues></_>
        <_>
          <internalNodes>
            0 -1 7 -134875474 1280273290 -2138920214 13226318 1394041089
            1503814162 1151328854 1430779823</internalNodes>
          <leafValues>
            -4.0852788090705872e-01 2.9029703140258789e-01</leafValues></_>
        <_>
          <internalNodes>
            0 -1 25 -810584564 1691336111 -179650544 -421235810
            1875369792 1149211415 130085698 1260810047</internalNodes>
          <leafValues>
            -4.6129384636878967e-01 2.6046776771545410e-01</leafValues></_>
        <_>
          <internalNodes>
            0 -1 72 -155496629 -1393721411 1048035151 -489173076
            -1015601833 1468006271 -193698239 -780208310</internalNodes>
          <leafValues>
            -3.0621260404586792e-01 3.9271670579910278e-01</leafValues></_>
        <_>
          <internalNodes>
            0 -1 139 -168380221 -277946409 1190084288 -670142726
            -562561715 71024164 402110278 -798491729</internalNodes>
          <leafValues>
            -2.7715048193931580e-01 4.6962881088256836e-01</leafValues></_>
        <_>
          <internalNodes>
            0 -1 110 -411073209 -1391530116 -1359311200 -294735944
            -808120737 -709361865 1962225521 -173621389</internalNodes>
          <leafValues>
            -3.2611289620399475e-01 4.1395503282546997e-01</leafValues></_>
        <_>
          <internalNodes>
            0 -1 140 -104106028 -429491349 -692160532 1253747888
            1337216538 1342177141 1616938807 -484711993</internalNodes>
          <leafValues>
            -3.3394744992256165e-01 4.2120850086212158e-01</leafValues></_>
        <_>
          <internalNodes>
            0 -1 35 1786278950 1180777109 1808419906 541200938
            -787722940 902419458 1923507474 1101310949</internalNodes>
          <leafValues>
            -5.9793972969055176e-01 2.4322469532489777e-01</leafValues></_>
        <_>
          <internalNodes>
            0 -1 92 -1024628026 1121886231 -2113339120 -1290930193
            810279168 857276419 -1005640175 -1322720309</internalNodes>
          <leafValues>
            -4.2221227288246155e-01 3.1476861238479614e-01</leafValues></_></weakClassifiers></_>
    <!-- stage 3 -->
    <_>
      <maxWeakCount>11</maxWeakCount>
      <stageThreshold>-8.3579766750335693e-01</stageThreshold>
      <weakClassifiers>
        <_>
          <internalNodes>
            0 -1 9 1594219726 1120924426 541114636 5014222 -239023536
            1967456258 -766320245 -215353361</internalNodes>
          <leafValues>
            -5.0966024398803711e-01 1.7399999499320984e-01</leafValues></_>
        <_>
          <internalNodes>
            0 -1 56 -35356857 -270152025 -312215000 -626404762
            -914537401 1643510751 -621548781 1148641599</internalNodes>
          <leafValues>
            -3.5138219594955444e-01 3.1640714406967163e-01</leafValues></_>
        <_>
          <internalNodes>
            0 -1 133 -758731570 -498085819 1347437002 605653213
            -1877443730 305022986 537456394 1383066511</internalNodes>
          <leafValues>
            -3.4280475974082947e-01 3.5063758492469788e-01</leafValues></_>
        <_>
          <internalNodes>
            0 -1 131 -142609718 109424158 65800 563312972 1141028354
            37752898 1093247778 1361289951</internalNodes>
          <leafValues>
            -3.3260568976402283e-01 3.5940852761268616e-01</leafValues></_>
        <_>
          <internalNodes>
            0 -1 52 -404664794 568755695 -444089632 551553412 1773161265
            1752633941 -760338393 1086047109</internalNodes>
          <leafValues>
            -4.6411395072937012e-01 2.9512587189674377e-01</leafValues></_>
        <_>
          <internalNodes>
            0 -1 67 1331779396 164153682 -1146883072 -957816823
            1141981029 90282903 82481152 1622601211</internalNodes>
          <leafValues>
            -5.5743086338043213e-01 2.1771197021007538e-01</leafValues></_>
        <_>
          <internalNodes>
            0 -1 135 -72422386 -2050567929 -92629912 639130187
            1825920013 1757153871 -177763260 -252839209</internalNodes>
          <leafValues>
            -3.8661727309226990e-01 3.6195003986358643e-01</leafValues></_>
        <_>
          <internalNodes>
            0 -1 143 1968947238 -1773830115 -1073702776 1125220495
            -1606038910 1367476226 1208077056 1359216311</internalNodes>
          <leafValues>
            -3.5753226280212402e-01 3.7851530313491821e-01</leafValues></_>
        <_>
          <internalNodes>
            0 -1 130 2063248173 -110449285 -687904848 -1364284611
            1056396615 1433796447 -1661180718 -323832083</internalNodes>
          <leafValues>
            -3.4605580568313599e-01 4.0697464346885681e-01</leafValues></_>
        <_>
          <internalNodes>
            0 -1 23 -730333432 -347970363 -478010770 -1063460214
            -2133246651 2074269797 -1298570110 2008205591</internalNodes>
          <leafValues>
            -4.4531437754631042e-01 3.3227285742759705e-01</leafValues></_>
        <_>
          <internalNodes>
            0 -1 37 -6639998 1269983615 -390576602 -1095291421
            -243348705 1110031894 780129935 -684781585</internalNodes>
          <leafValues>
            -3.0916100740432739e-01 4.8475947976112366e-01</leafValues></_></weakClassifiers></_>
    <!-- stage 4 -->
    <_>
      <maxWeakCount>12</maxWeakCount>
      <stageThreshold>-9.8411709070205688e-01</stageThreshold>
      <weakClassifiers>
        <_>
          <internalNodes>
            0 -1 48 -244855586 -774930174 -1458778080 -266731389
            -607282939 1090658313 1076605107 1377024971</internalNodes>
          <leafValues>
            -4.6609652042388916e-01 1.9907407462596893e-01</leafValues></_>
        <_>
          <internalNodes>
            0 -1 59 -547627739 794736567 -763692510 -294090963
            1187587431 1247606651 176836436 -252406105</internalNodes>
          <leafValues>
            -3.4602460265159607e-01 3.1769165396690369e-01</leafValues></_>
        <_>
          <internalNodes>
            0 -1 70 939095599 1678112039 -31141214 -97325674 -1996862374
            1631451399 1234591526 -459998731</internalNodes>
          <leafValues>
            -3.4463849663734436e-01 3.3216115832328796e-01</leafValues></_>
        <_>
          <internalNodes>
            0 -1 79 2111991111 1795578207 -923352474 -1569133971
            -1724574379 1174645211 1920684608 -218727067</internalNodes>
          <leafValues>
            -3.8408604264259338e-01 3.2749867439270020e-01</leafValues></_>
        <_>
          <internalNodes>
            0 -1 117 1903380386 1890521108 1479065608 -533345895
            -1073418164 1091573252 -762696898 1964237519</internalNodes>
          <leafValues>
            -3.0987387895584106e-01 4.0982869267463684e-01</leafValues></_>
        <_>
          <internalNodes>
            0 -1 76 116354343 -988123234 -860700340 -361038471
            -777976749 88230051 -63084 -1593911373</internalNodes>
          <leafValues>
            -3.7450096011161804e-01 3.6237633228302002e-01</leafValues></_>
        <_>
          <internalNodes>
            0 -1 62 -641735030 2045106989 -1090881920 -619118676
            1413130143 1381119358 -673276210 1442443659</internalNodes>
          <leafValues>
            -2.7864170074462891e-01 4.5431059598922729e-01</leafValues></_>
        <_>
          <internalNodes>
            0 -1 108 998034991 -1493205017 -1368397233 -1427194037
            1073016663 2012707831 -332084105 -2031495714</internalNodes>
          <leafValues>
            -3.5017853975296021e-01 4.1200849413871765e-01</leafValues></_>
        <_>
          <internalNodes>
            0 -1 134 -110175858 1125072755 -338727132 2023871561
            1718672452 249921398 1701900134 1112261071</internalNodes>
          <leafValues>
            -3.3546945452690125e-01 4.3255794048309326e-01</leafValues></_>
        <_>
          <internalNodes>
            0 -1 128 1186341191 -1017049907 -1313010942 -1568610890
            841697127 1130350879 -1992987996 -1325731908</internalNodes>
          <leafValues>
            -4.1787254810333252e-01 3.5224619507789612e-01</leafValues></_>
        <_>
          <internalNodes>
            0 -1 68 2114612801 607709613 -234968570 719908006 798410854
            1695275379 -1508225948 1424026068</internalNodes>
          <leafValues>
            -5.3747636079788208e-01 2.6956441998481750e-01</leafValues></_>
        <_>
          <internalNodes>
            0 -1 21 -609320242 -47470257 -2004562936 -1338519274
            -1668629681 1594110279 1915822944 1435742155</internalNodes>
          <leafValues>
            -4.1810199618339539e-01 3.5325154662132263e-01</leafValues></_></weakClassifiers></_>
    <!-- stage 5 -->
    <_>
      <maxWeakCount>11</maxWeakCount>
      <stageThreshold>-1.0190507173538208e+00</stageThreshold>
      <weakClassifiers>
        <_>
          <internalNodes>
            0 -1 12 -422184306 1213321439 100944000 1179452622
            1406133838 1342317072 -232984534 1397489455</internalNodes>
          <leafValues>
            -5.2588146924972534e-01 9.4178080558776855e-02</leafValues></_>
        <_>
          <internalNodes>
            0 -1 58 -636298706 1703133253 1073824260 1120139995
            -117051638 1112019105 652628558 1445327854</internalNodes>
          <leafValues>
            -3.6776280403137207e-01 2.7286410331726074e-01</leafValues></_>
        <_>
          <internalNodes>
            0 -1 39 -699177178 1951285400 -1040119762 1659555530
            -90004974 1082195976 964141734 1610686030</internalNodes>
          <leafValues>
            -4.4689834117889404e-01 2.4257545173168182e-01</leafValues></_>
        <_>
          <internalNodes>
            0 -1 27 -268476051 -321952379 -285229450 1884864426
            -1678481881 634171383 -675955132 -136327953</internalNodes>
          <leafValues>
            -2.5911495089530945e-01 4.1666132211685181e-01</leafValues></_>
        <_>
          <internalNodes>
            0 -1 125 -2117783836 1900206467 -779190142 -261593152
            1427778142 1111840830 1233422261 -419582009</internalNodes>
          <leafValues>
            -4.0371954441070557e-01 2.8996863961219788e-01</leafValues></_>
        <_>
          <internalNodes>
            0 -1 46 -222058010 1172095182 -1928940920 -800905470
            -651455964 1610785792 -217874017 1381982443</internalNodes>
          <leafValues>
            -3.5093498229980469e-01 3.5839396715164185e-01</leafValues></_>
        <_>
          <internalNodes>
            0 -1 107 -194121877 -469769747 -285556828 -1360859410
            -293612238 292953975 -1236470171 -224006985</internalNodes>
          <leafValues>
            -3.0787196755409241e-01 4.2998731136322021e-01</leafValues></_>
        <_>
          <internalNodes>
            0 -1 18 -1003269000 170138959 -1996373564 212905000
            -720748203 8827955 -469692016 1085009982</internalNodes>
          <leafValues>
            -4.7487372159957886e-01 2.5806906819343567e-01</leafValues></_>
        <_>
          <internalNodes>
            0 -1 127 1540289294 1499868909 2117767072 1885069999
            -1258965916 1951915645 -134319165 1392111003</internalNodes>
          <leafValues>
            -3.3481448888778687e-01 4.0409821271896362e-01</leafValues></_>
        <_>
          <internalNodes>
            0 -1 45 -4660902 -748048388 -288158040 -266652034 1408678987
            85458549 -1478790342 1393557231</internalNodes>
          <leafValues>
            -3.2028371095657349e-01 4.2650014162063599e-01</leafValues></_>
        <_>
          <internalNodes>
            0 -1 78 619054250 763649820 -1744685696 651407840 375994917
            436437793 1097181504 1425308560</internalNodes>
          <leafValues>
            -7.0778816938400269e-01 1.8298989534378052e-01</leafValues></_></weakClassifiers></_>
    <!-- stage 6 -->
    <_>
      <maxWeakCount>11</maxWeakCount>
      <stageThreshold>-1.1926698684692383e+00</stageThreshold>
      <weakClassifiers>
        <_>
          <internalNodes>
            0 -1 97 -217189654 1233204042 -922579904 1360380803
            1962983958 545540096 847376578 1911520239</internalNodes>
          <leafValues>
            -5.1469582319259644e-01 1.5606936812400818e-01</leafValues></_>
        <_>
          <internalNodes>
            0 -1 6 -135273842 -1018927154 -1073725308 1078133013
            -360472951 1342701697 52678895 1394328543</internalNodes>
          <leafValues>
            -3.5229116678237915e-01 3.5943216085433960e-01</leafValues></_>
        <_>
          <internalNodes>
            0 -1 82 -589058934 1422496077 -90812184 1158275333
            1267450631 1368539136 -524508662 1343980154</internalNodes>
          <leafValues>
            -3.5534209012985229e-01 3.1770545244216919e-01</leafValues></_>
        <_>
          <internalNodes>
            0 -1 43 -1080188122 -984115281 1086785574 -254913558
            -243160788 1108596740 334238164 1374741246</internalNodes>
          <leafValues>
            -4.9625375866889954e-01 2.2413279116153717e-01</leafValues></_>
        <_>
          <internalNodes>
            0 -1 57 -572226930 -170430585 -67174840 1370221567
            -1611297048 375029525 1992275898 1976031155</internalNodes>
          <leafValues>
            -2.5649511814117432e-01 4.4097855687141418e-01</leafValues></_>
        <_>
          <internalNodes>
            0 -1 104 1611219279 1651729046 1929877574 747723682
            -1758299566 166662187 1234920690 -240589276</internalNodes>
          <leafValues>
            -3.5785281658172607e-01 3.4320521354675293e-01</leafValues></_>
        <_>
          <internalNodes>
            0 -1 90 -1650006 -551080207 -478746016 2044886639 2108157594
            1131919130 -417465141 1997215323</internalNodes>
          <leafValues>
            -2.6968088746070862e-01 4.7115272283554077e-01</leafValues></_>
        <_>
          <internalNodes>
            0 -1 95 -721707413 -1967671569 -1996538100 -453842962
            1865129221 -412754182 -43519001 -97540156</internalNodes>
          <leafValues>
            -3.2142317295074463e-01 4.2794173955917358e-01</leafValues></_>
        <_>
          <internalNodes>
            0 -1 53 -831669205 138350447 524193319 -294883396 -805333198
            1954480117 -1028493456 -220350655</internalNodes>
          <leafValues>
            -3.4859478473663330e-01 3.7996181845664978e-01</leafValues></_>
        <_>
          <internalNodes>
            0 -1 147 -1898989105 652927491 1350845376 -225118000
            -2139916746 1203981194 -876041644 -137167668</internalNodes>
          <leafValues>
            -3.4657961130142212e-01 4.0079975128173828e-01</leafValues></_>
        <_>
          <internalNodes>
            0 -1 105 -785940989 -1130122017 -1769082432 1447170457
            1099466073 1080199549 -600395629 1655857697</internalNodes>
          <leafValues>
            -4.8806515336036682e-01 2.9590791463851929e-01</leafValues></_></weakClassifiers></_>
    <!-- stage 7 -->
    <_>
      <maxWeakCount>11</maxWeakCount>
      <stageThreshold>-8.5368919372558594e-01</stageThreshold>
      <weakClassifiers>
        <_>
          <internalNodes>
            0 -1 2 -559034486 1086496074 13125952 579096764 1898915402
            1103593730 1079223777 1918278607</internalNodes>
          <leafValues>
            -5.1803529262542725e-01 7.0116862654685974e-02</leafValues></_>
        <_>
          <internalNodes>
            0 -1 47 2044681922 -263697956 -2138009436 -268299448
            1767098784 1493453419 -1727878202 1882182239</internalNodes>
          <leafValues>
            -3.5068425536155701e-01 2.5699347257614136e-01</leafValues></_>
        <_>
          <internalNodes>
            0 -1 22 -697840698 2007506654 1380193520 -433831014
            -1859597520 6444339 546542803 847229723</internalNodes>
          <leafValues>
            -3.3672195672988892e-01 2.8517344594001770e-01</leafValues></_>
        <_>
          <internalNodes>
            0 -1 119 -647567190 1995382628 -1300771318 2060250866
            1968694646 1149041910 1893447227 1463220143</internalNodes>
          <leafValues>
            -2.5066125392913818e-01 3.6949890851974487e-01</leafValues></_>
        <_>
          <internalNodes>
            0 -1 77 -140928599 1611749011 1768898564 -1463373810
            -1129070572 -2029842357 722219361 352095199</internalNodes>
          <leafValues>
            -3.9116838574409485e-01 2.4392126500606537e-01</leafValues></_>
        <_>
          <internalNodes>
            0 -1 154 -683937271 1778651174 1893806212 1074581647
            -914159549 -499121952 1343930629 13499038</internalNodes>
          <leafValues>
            -3.8620465993881226e-01 2.7650654315948486e-01</leafValues></_>
        <_>
          <internalNodes>
            0 -1 4 1564966912 1171145281 1082290304 -996867680
            -1840993780 1076798001 1955251523 1500222855</internalNodes>
          <leafValues>
            -3.4806489944458008e-01 3.1890198588371277e-01</leafValues></_>
        <_>
          <internalNodes>
            0 -1 102 -1610514214 -2014060527 -2142976372 1558510143
            -1174370301 337326368 -1555486587 1418650247</internalNodes>
          <leafValues>
            -4.0912157297134399e-01 2.6495292782783508e-01</leafValues></_>
        <_>
          <internalNodes>
            0 -1 98 -1550120705 -1975254949 -666853358 -468921850
            -477429915 810156378 1158471243 -690906946</internalNodes>
          <leafValues>
            -3.4804454445838928e-01 3.2080265879631042e-01</leafValues></_>
        <_>
          <internalNodes>
            0 -1 0 -577778745 -454971799 -1342247304 -219781202
            -465175338 1333711965 -188827817 -235689249</internalNodes>
          <leafValues>
            -2.0918565988540649e-01 5.6393259763717651e-01</leafValues></_>
        <_>
          <internalNodes>
            0 -1 141 -832911348 -926815618 -1879031198 1658884340
            -1417539310 85354537 -447503348 542461423</internalNodes>
          <leafValues>
            -4.5508038997650146e-01 2.8162872791290283e-01</leafValues></_></weakClassifiers></_>
    <!-- stage 8 -->
    <_>
      <maxWeakCount>9</maxWeakCount>
      <stageThreshold>-1.3875108957290649e+00</stageThreshold>
      <weakClassifiers>
        <_>
          <internalNodes>
            0 -1 91 -1430315225 720356270 -1097080402 -1503727741
            106526791 1569622517 -285391551 -218178820</internalNodes>
          <leafValues>
            -5.2307695150375366e-01 1.4659197628498077e-01</leafValues></_>
        <_>
          <internalNodes>
            0 -1 44 -1384357067 -1493390985 -1023723378 -1427182604
            -1794242971 1336349547 -21793948 -488579384</internalNodes>
          <leafValues>
            -3.9864462614059448e-01 3.1435462832450867e-01</leafValues></_>
        <_>
          <internalNodes>
            0 -1 120 1855871759 1644755962 -11162524 -320274960
            -204909753 1694097403 -18996364 -453724644</internalNodes>
          <leafValues>
            -3.7983724474906921e-01 3.4380888938903809e-01</leafValues></_>
        <_>
          <internalNodes>
            0 -1 66 939518767 -139777171 -470108418 -222363669
            -555783009 1182793726 -134355253 -184616996</internalNodes>
          <leafValues>
            -2.6062577962875366e-01 4.9706849455833435e-01</leafValues></_>
        <_>
          <internalNodes>
            0 -1 74 485037825 -1908049729 2090754310 -1392711772
            -467184827 421103448 -985193356 -420153934</internalNodes>
          <leafValues>
            -3.7908849120140076e-01 3.6923825740814209e-01</leafValues></_>
        <_>
          <internalNodes>
            0 -1 54 505947947 -997270029 -431489118 1626793208 600797013
            1229775241 2129950534 -726649179</internalNodes>
          <leafValues>
            -4.5861041545867920e-01 2.9453516006469727e-01</leafValues></_>
        <_>
          <internalNodes>
            0 -1 99 586902379 720162280 -1129647678 1782744958 870394711
            150961767 -37130492 -219938027</internalNodes>
          <leafValues>
            -4.4430127739906311e-01 3.2784286141395569e-01</leafValues></_>
        <_>
          <internalNodes>
            0 -1 29 1861184174 -473577619 495688386 1928509517
            -2094578097 -1761545775 -390157350 -1746097993</internalNodes>
          <leafValues>
            -4.2423582077026367e-01 3.4969881176948547e-01</leafValues></_>
        <_>
          <internalNodes>
            0 -1 152 -1586610429 83082039 -1179720026 577296056
            -1102245565 1592151551 -1217440768 -427884672</internalNodes>
          <leafValues>
            -4.1870149970054626e-01 3.7488868832588196e-01</leafValues></_></weakClassifiers></_>
    <!-- stage 9 -->
    <_>
      <maxWeakCount>9</maxWeakCount>
      <stageThreshold>-8.7634587287902832e-01</stageThreshold>
      <weakClassifiers>
        <_>
          <internalNodes>
            0 -1 28 1876782927 -272378569 -140521010 -232859450
            -1145473425 1739963583 -242505754 -151872014</internalNodes>
          <leafValues>
            -5.2526593208312988e-01 1.9959878921508789e-01</leafValues></_>
        <_>
          <internalNodes>
            0 -1 51 370478951 70246191 1846472486 -390332440 1072872709
            634905779 -536889916 -187047948</internalNodes>
          <leafValues>
            -4.3837428092956543e-01 3.3275711536407471e-01</leafValues></_>
        <_>
          <internalNodes>
            0 -1 49 -1879717969 638416843 1704062624 -759496866
            1690261063 1098360243 1986459493 1974853273</internalNodes>
          <leafValues>
            -5.2149778604507446e-01 2.9161387681961060e-01</leafValues></_>
        <_>
          <internalNodes>
            0 -1 93 586099495 1810299886 -1765208732 -2032748952
            1820030836 -207361161 -207211280 -219351675</internalNodes>
          <leafValues>
            -4.0603575110435486e-01 3.8623446226119995e-01</leafValues></_>
        <_>
          <internalNodes>
            0 -1 64 1565436550 -676888662 -457185246 -210277653
            -1490693668 73873260 -1621131378 836691151</internalNodes>
          <leafValues>
            -3.7634438276290894e-01 4.1362586617469788e-01</leafValues></_>
        <_>
          <internalNodes>
            0 -1 114 -369492433 1085146233 890980550 -1460251425
            546263669 1657273087 -218218219 -444941212</internalNodes>
          <leafValues>
            -4.4693949818611145e-01 3.5441341996192932e-01</leafValues></_>
        <_>
          <internalNodes>
            0 -1 26 1667052719 -1504879323 1240282190 -490022446
            1580278087 1450303838 1974116357 -536545749</internalNodes>
          <leafValues>
            -4.6969512104988098e-01 3.4595686197280884e-01</leafValues></_>
        <_>
          <internalNodes>
            0 -1 96 188186407 -1897167558 -847128314 -88014878
            -822782700 1632997489 -1548831214 -492372517</internalNodes>
          <leafValues>
            -4.5051398873329163e-01 3.5231545567512512e-01</leafValues></_>
        <_>
          <internalNodes>
            0 -1 31 -779762244 1898835653 1979477384 2046410625
            2110956957 1185739542 -1747987494 1527332539</internalNodes>
          <leafValues>
            -3.2899841666221619e-01 5.3509807586669922e-01</leafValues></_></weakClassifiers></_>
    <!-- stage 10 -->
    <_>
      <maxWeakCount>11</maxWeakCount>
      <stageThreshold>-8.5700482130050659e-01</stageThreshold>
      <weakClassifiers>
        <_>
          <internalNodes>
            0 -1 63 -810742945 -1880238157 -67704251 -425535969
            -630256793 1562640146 -337906607 -419501469</internalNodes>
          <leafValues>
            -4.7987219691276550e-01 1.7094017565250397e-01</leafValues></_>
        <_>
          <internalNodes>
            0 -1 112 1766802691 1860479950 2113388162 -487087382
            -1079080321 1258007407 -17087724 -956703667</internalNodes>
          <leafValues>
            -3.5941544175148010e-01 3.1775590777397156e-01</leafValues></_>
        <_>
          <internalNodes>
            0 -1 136 -1497923025 705131275 -1227395038 -492940649
            1803361093 702139895 -579168432 -495932012</internalNodes>
          <leafValues>
            -3.8568127155303955e-01 3.0555635690689087e-01</leafValues></_>
        <_>
          <internalNodes>
            0 -1 129 -2054426833 -1503732477 -1198378134 -1300067348
            2074919254 548524583 -1109996252 -225743650</internalNodes>
          <leafValues>
            -4.0665373206138611e-01 3.0652838945388794e-01</leafValues></_>
        <_>
          <internalNodes>
            0 -1 150 599109381 653226311 -958066168 -1431383169
            794240811 1172296151 1955052375 -1607158412</internalNodes>
          <leafValues>
            -3.7973752617835999e-01 3.3071282505989075e-01</leafValues></_>
        <_>
          <internalNodes>
            0 -1 50 -1419833523 -1343953963 -355302290 1252889524
            2009955861 41153235 654198656 -458429028</internalNodes>
          <leafValues>
            -4.0464630722999573e-01 3.3528566360473633e-01</leafValues></_>
        <_>
          <internalNodes>
            0 -1 135 809045537 -2030898289 392028466 1651274599
            -1156199339 -1066340306 -1410279371 -236913472</internalNodes>
          <leafValues>
            -3.9517280459403992e-01 3.5688859224319458e-01</leafValues></_>
        <_>
          <internalNodes>
            0 -1 83 -1540017813 1824325534 -529906026 1795086450
            1731165023 1290271914 -629097100 -981668443</internalNodes>
          <leafValues>
            -4.0202447772026062e-01 3.3406072854995728e-01</leafValues></_>
        <_>
          <internalNodes>
            0 -1 88 -1431413112 -680661287 -1494863878 -168591761
            494925660 72775285 -522922177 999681440</internalNodes>
          <leafValues>
            -3.6666283011436462e-01 3.8149046897888184e-01</leafValues></_>
        <_>
          <internalNodes>
            0 -1 123 619144205 1181763533 -280959926 1789316606
            383478023 1505161618 -56549100 -488464780</internalNodes>
          <leafValues>
            -4.5436212420463562e-01 3.2191544771194458e-01</leafValues></_>
        <_>
          <internalNodes>
            0 -1 85 -482989533 603577453 -1861875481 -649665638
            2001201476 481157143 1217225574 -1544555292</internalNodes>
          <leafValues>
            -3.8763925433158875e-01 3.7704131007194519e-01</leafValues></_></weakClassifiers></_>
    <!-- stage 11 -->
    <_>
      <maxWeakCount>11</maxWeakCount>
      <stageThreshold>-1.1502088308334351e+00</stageThreshold>
      <weakClassifiers>
        <_>
          <internalNodes>
            0 -1 106 255280679 1847832637 -838341178 1721823706
            2072593205 126861163 -1175940236 -1040851468</internalNodes>
          <leafValues>
            -5.5177992582321167e-01 7.1936756372451782e-02</leafValues></_>
        <_>
          <internalNodes>
            0 -1 13 -1893778141 642443995 1840772296 686333196 411990353
            72584845 -1589419 -327755032</internalNodes>
          <leafValues>
            -3.9292445778846741e-01 2.6353958249092102e-01</leafValues></_>
        <_>
          <internalNodes>
            0 -1 103 250490663 747045949 240468242 -486887959
            -1016130255 1945290771 -236551851 -262877723</internalNodes>
          <leafValues>
            -3.9836692810058594e-01 2.8527641296386719e-01</leafValues></_>
        <_>
          <internalNodes>
            0 -1 115 -1380220561 -1530500765 -115871674 -1301903016
            1252203333 87183495 -191870652 -219249176</internalNodes>
          <leafValues>
            -3.5084134340286255e-01 3.3607497811317444e-01</leafValues></_>
        <_>
          <internalNodes>
            0 -1 121 -1443258585 1245280291 -1704690052 -222816718
            10689283 1628545027 -1853098523 1421127615</internalNodes>
          <leafValues>
            -4.0338239073753357e-01 2.9482570290565491e-01</leafValues></_>
        <_>
          <internalNodes>
            0 -1 145 1072152099 641916917 -250317752 -1367691047
            -1555227885 319699159 2107591957 -1873430398</internalNodes>
          <leafValues>
            -3.9246487617492676e-01 3.1016519665718079e-01</leafValues></_>
        <_>
          <internalNodes>
            0 -1 118 -826678995 768340255 -1878112672 8427918
            -1466021532 40206555 1292460372 -101386940</internalNodes>
          <leafValues>
            -4.3078985810279846e-01 2.8933107852935791e-01</leafValues></_>
        <_>
          <internalNodes>
            0 -1 34 1862254355 202292635 -1875114366 1658482395
            -668311537 93145387 -1182728106 -708998352</internalNodes>
          <leafValues>
            -3.7961125373840332e-01 3.6351338028907776e-01</leafValues></_>
        <_>
          <internalNodes>
            0 -1 10 -108281300 -986083155 1590789766 1887928651
            171876041 1258659873 -849760322 310612427</internalNodes>
          <leafValues>
            -3.9744731783866882e-01 3.3429583907127380e-01</leafValues></_>
        <_>
          <internalNodes>
            0 -1 148 -368869849 587085698 -1798184500 1727764524
            1229419536 -271359596 -1042337707 1281158275</internalNodes>
          <leafValues>
            -4.5591801404953003e-01 2.8992092609405518e-01</leafValues></_>
        <_>
          <internalNodes>
            0 -1 113 -1879380438 69263840 1715880288 1951216092
            -1939102109 134963762 -1530523280 -530125468</internalNodes>
          <leafValues>
            -4.9455690383911133e-01 2.8463181853294373e-01</leafValues></_></weakClassifiers></_>
    <!-- stage 12 -->
    <_>
      <maxWeakCount>12</maxWeakCount>
      <stageThreshold>-8.7629932165145874e-01</stageThreshold>
      <weakClassifiers>
        <_>
          <internalNodes>
            0 -1 42 -1128300753 -691308441 -1084928698 -499888446
            -2105280442 1900128822 -777657370 -723129762</internalNodes>
          <leafValues>
            -5.0109088420867920e-01 8.7033748626708984e-02</leafValues></_>
        <_>
          <internalNodes>
            0 -1 142 -851448441 63939681 1881890380 1995101060
            2033677127 91130200 66576981 -240394274</internalNodes>
          <leafValues>
            -3.6682078242301941e-01 2.5404927134513855e-01</leafValues></_>
        <_>
          <internalNodes>
            0 -1 137 1839106919 554106302 -425694718 1755626448
            -1436739035 -2105033845 -637783596 -200249355</internalNodes>
          <leafValues>
            -3.6679020524024963e-01 2.7207228541374207e-01</leafValues></_>
        <_>
          <internalNodes>
            0 -1 84 -1568334816 1713932582 717591078 638202089 585962755
            39577866 -983696026 -462429724</internalNodes>
          <leafValues>
            -4.1563290357589722e-01 2.6934430003166199e-01</leafValues></_>
        <_>
          <internalNodes>
            0 -1 15 -1063003442 894174404 591525262 1385109134
            -784152370 1371570307 -190655765 334113211</internalNodes>
          <leafValues>
            -3.4770104289054871e-01 3.2395195960998535e-01</leafValues></_>
        <_>
          <internalNodes>
            0 -1 132 1803490063 1340305133 1589605072 2146172388
            1761341035 1094940501 133667238 -134243970</internalNodes>
          <leafValues>
            -3.1438174843788147e-01 3.6628854274749756e-01</leafValues></_>
        <_>
          <internalNodes>
            0 -1 151 1686570300 588551692 -1533302240 -1973435256
            2060935780 1716398300 -591561131 49573173</internalNodes>
          <leafValues>
            -5.9007209539413452e-01 1.9270609319210052e-01</leafValues></_>
        <_>
          <internalNodes>
            0 -1 36 -1045626100 1646907929 -2105463802 613702202
            1756663638 1997771657 -427245243 72716995</internalNodes>
          <leafValues>
            -6.6485905647277832e-01 1.6661740839481354e-01</leafValues></_>
        <_>
          <internalNodes>
            0 -1 32 1804592687 -1570169384 -1362898526 -1493579034
            1074742611 1971964447 940164213 -23334935</internalNodes>
          <leafValues>
            -3.3425566554069519e-01 3.5221284627914429e-01</leafValues></_>
        <_>
          <internalNodes>
            0 -1 138 957839751 676851011 -1332582392 -1598904067
            -2103889599 1096985643 2117428848 -2113613131</internalNodes>
          <leafValues>
            -4.2074620723724365e-01 2.8018650412559509e-01</leafValues></_>
        <_>
          <internalNodes>
            0 -1 61 1064250343 1191083832 1056951258 -493029383
            -511707303 -189339801 1861705221 -68382980</internalNodes>
          <leafValues>
            -3.2389372587203979e-01 3.8457137346267700e-01</leafValues></_>
        <_>
          <internalNodes>
            0 -1 75 1941009379 1433087830 1342043178 -1684066642
            1685997225 1701541656 -1445500246 1633681337</internalNodes>
          <leafValues>
            -2.9307636618614197e-01 4.3964910507202148e-01</leafValues></_></weakClassifiers></_>
    <!-- stage 13 -->
    <_>
      <maxWeakCount>11</maxWeakCount>
      <stageThreshold>-8.2877486944198608e-01</stageThreshold>
      <weakClassifiers>
        <_>
          <internalNodes>
            0 -1 126 -803277694 2063927407 -1610510016 2067333145
            -2910836 1363182610 -352065381 369035099</internalNodes>
          <leafValues>
            -4.5652174949645996e-01 1.3127000629901886e-01</leafValues></_>
        <_>
          <internalNodes>
            0 -1 116 52119627 172890956 2055860799 713728388 -409521387
            1918482558 -911341472 953471310</internalNodes>
          <leafValues>
            -4.3616822361946106e-01 1.9425845146179199e-01</leafValues></_>
        <_>
          <internalNodes>
            0 -1 149 -966411997 1878461894 -286658951 581934822
            -12599457 894729983 115144642 -2063944433</internalNodes>
          <leafValues>
            -3.0390992760658264e-01 3.1159865856170654e-01</leafValues></_>
        <_>
          <internalNodes>
            0 -1 38 208744259 599629514 -1017387245 -522163186 77811541
            1761787442 883507324 565879078</internalNodes>
          <leafValues>
            -3.8521128892898560e-01 2.8236570954322815e-01</leafValues></_>
        <_>
          <internalNodes>
            0 -1 1 -154030355 2068594834 -934707168 1652918478
            -1072909440 113527175 571123595 456178219</internalNodes>
          <leafValues>
            -3.1598490476608276e-01 3.3160465955734253e-01</leafValues></_>
        <_>
          <internalNodes>
            0 -1 60 201460327 1715162891 -1165411196 1881820998
            1205037572 271050907 1993427077 -525164035</internalNodes>
          <leafValues>
            -4.2536833882331848e-01 2.5446584820747375e-01</leafValues></_>
        <_>
          <internalNodes>
            0 -1 80 1390075611 1898936161 -294172950 -241734165
            -436237078 225263447 2130704063 -679798369</internalNodes>
          <leafValues>
            -1.9811321794986725e-01 5.3852689266204834e-01</leafValues></_>
        <_>
          <internalNodes>
            0 -1 86 1203516519 -444788286 -1509056511 571367072
            -1658970542 -1224260949 334691966 -252797710</internalNodes>
          <leafValues>
            -3.4290051460266113e-01 3.2520937919616699e-01</leafValues></_>
        <_>
          <internalNodes>
            0 -1 14 1915661583 1286052464 -686643702 -1407482844
            2048937792 1097041966 -132226091 284277916</internalNodes>
          <leafValues>
            -4.0465870499610901e-01 2.9569309949874878e-01</leafValues></_>
        <_>
          <internalNodes>
            0 -1 87 -171664248 1929949670 -1052570566 465129669 4456200
            1074430733 436382062 1985201737</internalNodes>
          <leafValues>
            -4.0152558684349060e-01 3.0599737167358398e-01</leafValues></_>
        <_>
          <internalNodes>
            0 -1 73 1630606255 792400158 2050424896 302747796 998947661
            1646393393 -1987923722 1543210207</internalNodes>
          <leafValues>
            -3.7776401638984680e-01 3.3002889156341553e-01</leafValues></_></weakClassifiers></_>
    <!-- stage 14 -->
    <_>
      <maxWeakCount>10</maxWeakCount>
      <stageThreshold>-8.9219689369201660e-01</stageThreshold>
      <weakClassifiers>
        <_>
          <internalNodes>
            0 -1 111 714820139 242141031 -852113692 -455554704
            1822084369 1833546922 1865936464 -1595758068</internalNodes>
          <leafValues>
            -5.5714285373687744e-01 2.3895727470517159e-02</leafValues></_>
        <_>
          <internalNodes>
            0 -1 81 -1916932857 1612782411 -744710940 1926559306
            -977449465 74421943 -670170364 -754999066</internalNodes>
          <leafValues>
            -4.1087219119071960e-01 2.3594634234905243e-01</leafValues></_>
        <_>
          <internalNodes>
            0 -1 65 -1692701917 -1880282754 -288751962 -761617930
            1520125198 1468125741 782218050 1449849296</internalNodes>
          <leafValues>
            -4.3554303050041199e-01 2.2969377040863037e-01</leafValues></_>
        <_>
          <internalNodes>
            0 -1 55 -327218683 705418570 1523236685 642541578 1933496582
            663541773 1911251031 -491586829</internalNodes>
          <leafValues>
            -3.4977224469184875e-01 3.0518501996994019e-01</leafValues></_>
        <_>
          <internalNodes>
            0 -1 30 -302679549 -1906055108 -478067712 -871732646
            1804267532 1978869783 -1023231888 -340070348</internalNodes>
          <leafValues>
            -3.3345547318458557e-01 3.2629534602165222e-01</leafValues></_>
        <_>
          <internalNodes>
            0 -1 17 -660094976 -426315391 -850399992 -1464673884
            367863061 -1803580708 -338800556 1912918920</internalNodes>
          <leafValues>
            -4.8067614436149597e-01 2.2884619235992432e-01</leafValues></_>
        <_>
          <internalNodes>
            0 -1 146 -1479550165 -1301362230 -535164330 -1036516531
            -263292079 -522876549 -1567476153 -468780563</internalNodes>
          <leafValues>
            -3.6779186129570007e-01 3.2537668943405151e-01</leafValues></_>
        <_>
          <internalNodes>
            0 -1 153 1185156097 -355822167 -1533628384 -934964770
            1986430755 1122969984 1490592544 1641299948</internalNodes>
          <leafValues>
            -4.4761019945144653e-01 2.6985985040664673e-01</leafValues></_>
        <_>
          <internalNodes>
            0 -1 24 1799269635 -298365998 -1039634868 -1373572219
            1476331287 629697824 -708710044 1422784990</internalNodes>
          <leafValues>
            -4.0568077564239502e-01 3.0867120623588562e-01</leafValues></_>
        <_>
          <internalNodes>
            0 -1 94 -800511602 1411073090 -234493946 -705101682
            -1719170276 587743489 1367468034 -1018086601</internalNodes>
          <leafValues>
            -3.6601918935775757e-01 3.4673970937728882e-01</leafValues></_></weakClassifiers></_></stages>
  <features>
    <_>
      <rect>
        0 0 1 2</rect></_>
    <_>
      <rect>
        0 1 3 3</rect></_>
    <_>
      <rect>
        0 1 3 7</rect></_>
    <_>
      <rect>
        0 1 4 3</rect></_>
    <_>
      <rect>
        0 2 2 5</rect></_>
    <_>
      <rect>
        0 3 1 1</rect></_>
    <_>
      <rect>
        0 4 4 5</rect></_>
    <_>
      <rect>
        0 5 2 2</rect></_>
    <_>
      <rect>
        0 6 3 3</rect></_>
    <_>
      <rect>
        0 6 3 4</rect></_>
    <_>
      <rect>
        0 6 4 4</rect></_>
    <_>
      <rect>
        0 6 4 5</rect></_>
    <_>
      <rect>
        0 8 3 4</rect></_>
    <_>
      <rect>
        0 9 1 1</rect></_>
    <_>
      <rect>
        0 10 1 1</rect></_>
    <_>
      <rect>
        0 10 4 3</rect></_>
    <_>
      <rect>
        0 12 5 4</rect></_>
    <_>
      <rect>
        0 15 1 1</rect></_>
    <_>
      <rect>
        0 16 1 2</rect></_>
    <_>
      <rect>
        0 17 1 1</rect></_>
    <_>
      <rect>
        0 21 1 1</rect></_>
    <_>
      <rect>
        0 21 2 1</rect></_>
    <_>
      <rect>
        1 0 2 2</rect></_>
    <_>
      <rect>
        1 1 1 1</rect></_>
    <_>
      <rect>
        1 2 1 1</rect></_>
    <_>
      <rect>
        1 3 1 1</rect></_>
    <_>
      <rect>
        1 3 2 1</rect></_>
    <_>
      <rect>
        1 7 1 1</rect></_>
    <_>
      <rect>
        1 11 4 1</rect></_>
    <_>
      <rect>
        1 14 2 1</rect></_>
    <_>
      <rect>
        1 19 1 1</rect></_>
    <_>
      <rect>
        2 4 5 6</rect></_>
    <_>
      <rect>
        2 7 1 1</rect></_>
    <_>
      <rect>
        2 9 7 5</rect></_>
    <_>
      <rect>
        2 11 1 1</rect></_>
    <_>
      <rect>
        2 16 1 1</rect></_>
    <_>
      <rect>
        2 16 3 1</rect></_>
    <_>
      <rect>
        3 0 2 2</rect></_>
    <_>
      <rect>
        3 2 1 1</rect></_>
    <_>
      <rect>
        3 9 3 3</rect></_>
    <_>
      <rect>
        3 11 1 1</rect></_>
    <_>
      <rect>
        3 17 1 1</rect></_>
    <_>
      <rect>
        3 21 2 1</rect></_>
    <_>
      <rect>
        3 21 3 1</rect></_>
    <_>
      <rect>
        4 0 1 1</rect></_>
    <_>
      <rect>
        4 0 2 2</rect></_>
    <_>
      <rect>
        4 5 2 2</rect></_>
    <_>
      <rect>
        4 6 5 6</rect></_>
    <_>
      <rect>
        4 7 2 4</rect></_>
    <_>
      <rect>
        4 7 3 1</rect></_>
    <_>
      <rect>
        4 10 1 1</rect></_>
    <_>
      <rect>
        4 12 2 1</rect></_>
    <_>
      <rect>
        4 13 1 1</rect></_>
    <_>
      <rect>
        4 14 1 1</rect></_>
    <_>
      <rect>
        4 18 1 1</rect></_>
    <_>
      <rect>
        5 3 1 1</rect></_>
    <_>
      <rect>
        5 4 1 1</rect></_>
    <_>
      <rect>
        5 6 3 4</rect></_>
    <_>
      <rect>
        5 13 3 3</rect></_>
    <_>
      <rect>
        5 14 1 1</rect></_>
    <_>
      <rect>
        5 17 1 1</rect></_>
    <_>
      <rect>
        5 19 1 1</rect></_>
    <_>
      <rect>
        6 0 2 2</rect></_>
    <_>
      <rect>
        6 1 1 1</rect></_>
    <_>
      <rect>
        6 5 5 4</rect></_>
    <_>
      <rect>
        6 11 2 1</rect></_>
    <_>
      <rect>
        6 17 3 1</rect></_>
    <_>
      <rect>
        6 18 1 1</rect></_>
    <_>
      <rect>
        6 20 1 1</rect></_>
    <_>
      <rect>
        7 0 2 2</rect></_>
    <_>
      <rect>
        7 3 1 1</rect></_>
    <_>
      <rect>
        7 5 2 1</rect></_>
    <_>
      <rect>
        7 10 1 1</rect></_>
    <_>
      <rect>
        7 13 3 1</rect></_>
    <_>
      <rect>
        7 15 1 1</rect></_>
    <_>
      <rect>
        8 0 3 4</rect></_>
    <_>
      <rect>
        8 2 1 1</rect></_>
    <_>
      <rect>
        8 8 2 2</rect></_>
    <_>
      <rect>
        8 9 1 1</rect></_>
    <_>
      <rect>
        8 14 1 1</rect></_>
    <_>
      <rect>
        8 14 2 2</rect></_>
    <_>
      <rect>
        8 21 2 1</rect></_>
    <_>
      <rect>
        9 0 4 4</rect></_>
    <_>
      <rect>
        9 7 1 1</rect></_>
    <_>
      <rect>
        9 10 1 1</rect></_>
    <_>
      <rect>
        10 1 1 1</rect></_>
    <_>
      <rect>
        10 3 1 1</rect></_>
    <_>
      <rect>
        10 8 3 3</rect></_>
    <_>
      <rect>
        10 12 3 3</rect></_>
    <_>
      <rect>
        10 14 3 2</rect></_>
    <_>
      <rect>
        10 14 3 3</rect></_>
    <_>
      <rect>
        10 16 1 1</rect></_>
    <_>
      <rect>
        10 16 2 2</rect></_>
    <_>
      <rect>
        11 0 2 1</rect></_>
    <_>
      <rect>
        11 0 4 7</rect></_>
    <_>
      <rect>
        11 1 1 1</rect></_>
    <_>
      <rect>
        11 5 2 1</rect></_>
    <_>
      <rect>
        11 6 4 5</rect></_>
    <_>
      <rect>
        11 8 1 1</rect></_>
    <_>
      <rect>
        12 2 1 1</rect></_>
    <_>
      <rect>
        12 2 4 3</rect></_>
    <_>
      <rect>
        12 2 4 4</rect></_>
    <_>
      <rect>
        12 5 1 1</rect></_>
    <_>
      <rect>
        12 14 1 1</rect></_>
    <_>
      <rect>
        12 15 1 1</rect></_>
    <_>
      <rect>
        12 17 3 1</rect></_>
    <_>
      <rect>
        12 20 1 1</rect></_>
    <_>
      <rect>
        13 1 1 1</rect></_>
    <_>
      <rect>
        13 4 1 1</rect></_>
    <_>
      <rect>
        13 4 3 3</rect></_>
    <_>
      <rect>
        13 7 1 1</rect></_>
    <_>
      <rect>
        13 8 1 1</rect></_>
    <_>
      <rect>
        13 10 1 1</rect></_>
    <_>
      <rect>
        13 11 1 1</rect></_>
    <_>
      <rect>
        13 13 2 1</rect></_>
    <_>
      <rect>
        13 18 2 1</rect></_>
    <_>
      <rect>
        14 0 1 1</rect></_>
    <_>
      <rect>
        14 0 2 3</rect></_>
    <_>
      <rect>
        14 5 1 1</rect></_>
    <_>
      <rect>
        14 12 3 4</rect></_>
    <_>
      <rect>
        14 13 1 1</rect></_>
    <_>
      <rect>
        14 20 2 1</rect></_>
    <_>
      <rect>
        15 6 1 1</rect></_>
    <_>
      <rect>
        15 7 1 1</rect></_>
    <_>
      <rect>
        15 12 3 3</rect></_>
    <_>
      <rect>
        15 13 2 1</rect></_>
    <_>
      <rect>
        15 15 3 3</rect></_>
    <_>
      <rect>
        16 0 2 2</rect></_>
    <_>
      <rect>
        16 2 1 1</rect></_>
    <_>
      <rect>
        16 7 2 1</rect></_>
    <_>
      <rect>
        16 9 1 1</rect></_>
    <_>
      <rect>
        16 9 2 3</rect></_>
    <_>
      <rect>
        16 12 2 1</rect></_>
    <_>
      <rect>
        16 17 2 2</rect></_>
    <_>
      <rect>
        17 3 2 4</rect></_>
    <_>
      <rect>
        17 6 1 1</rect></_>
    <_>
      <rect>
        17 15 1 1</rect></_>
    <_>
      <rect>
        17 16 1 1</rect></_>
    <_>
      <rect>
        17 18 1 1</rect></_>
    <_>
      <rect>
        18 1 2 3</rect></_>
    <_>
      <rect>
        18 2 1 2</rect></_>
    <_>
      <rect>
        18 2 2 3</rect></_>
    <_>
      <rect>
        18 5 2 1</rect></_>
    <_>
      <rect>
        18 9 2 3</rect></_>
    <_>
      <rect>
        18 10 2 3</rect></_>
    <_>
      <rect>
        18 13 1 1</rect></_>
    <_>
      <rect>
        20 0 1 1</rect></_>
    <_>
      <rect>
        20 3 1 1</rect></_>
    <_>
      <rect>
        20 9 1 1</rect></_>
    <_>
      <rect>
        20 12 1 1</rect></_>
    <_>
      <rect>
        20 13 1 1</rect></_>
    <_>
      <rect>
        20 17 1 1</rect></_>
    <_>
      <rect>
        21 2 1 1</rect></_>
    <_>
      <rect>
        21 5 1 1</rect></_>
    <_>
      <rect>
        21 21 1 1</rect></_></features></cascade>
</opencv_storage>
