<?xml version="1.0"?>
<opencv_storage>
<cascade type_id="opencv-cascade-classifier">
  <stageType>BOOST</stageType>
  <featureType>HAAR</featureType>
  <height>24</height>
  <width>24</width>
  <stageParams>
    <boostType>GAB</boostType>
    <minHitRate>9.9500000476837158e-01</minHitRate>
    <maxFalseAlarm>5.0000000000000000e-01</maxFalseAlarm>
    <weightTrimRate>9.4999999999999996e-01</weightTrimRate>
    <maxDepth>1</maxDepth>
    <maxWeakCount>100</maxWeakCount></stageParams>
  <featureParams>
    <maxCatCount>0</maxCatCount>
    <featSize>1</featSize>
    <mode>BASIC</mode></featureParams>
  <stageNum>14</stageNum>
  <stages>
    <!-- stage 0 -->
    <_>
      <maxWeakCount>3</maxWeakCount>
      <stageThreshold>-1.0390908718109131e+00</stageThreshold>
      <weakClassifiers>
        <_>
          <internalNodes>
            0 -1 30 -1.5032684803009033e-01</internalNodes>
          <leafValues>
            8.6792451143264771e-01 -9.0879476070404053e-01</leafValues></_>
        <_>
          <internalNodes>
            0 -1 36 -9.7334787249565125e-02</internalNodes>
          <leafValues>
            9.6136325597763062e-01 -5.8207875490188599e-01</leafValues></_>
        <_>
          <internalNodes>
            0 -1 15 -2.2516608238220215e-02</internalNodes>
          <leafValues>
            -9.6671897172927856e-01 4.5178270339965820e-01</leafValues></_></weakClassifiers></_>
    <!-- stage 1 -->
    <_>
      <maxWeakCount>2</maxWeakCount>
      <stageThreshold>-6.9762820005416870e-01</stageThreshold>
      <weakClassifiers>
        <_>
          <internalNodes>
            0 -1 21 -1.9084186851978302e-01</internalNodes>
          <leafValues>
            6.0000002384185791e-01 -9.0972220897674561e-01</leafValues></_>
        <_>
          <internalNodes>
            0 -1 13 3.1471919268369675e-02</internalNodes>
          <leafValues>
            2.1209405362606049e-01 -1.</leafValues></_></weakClassifiers></_>
    <!-- stage 2 -->
    <_>
      <maxWeakCount>5</maxWeakCount>
      <stageThreshold>-1.4580821990966797e+00</stageThreshold>
      <weakClassifiers>
        <_>
          <internalNodes>
            0 -1 31 -2.6592850685119629e-01</internalNodes>
          <leafValues>
            9.6875000000000000e-01 -7.1346706151962280e-01</leafValues></_>
        <_>
          <internalNodes>
            0 -1 19 -1.4980903267860413e-01</internalNodes>
          <leafValues>
            8.8082891702651978e-01 -5.5691522359848022e-01</leafValues></_>
        <_>
          <internalNodes>
            0 -1 25 -4.6881916205165908e-05</internalNodes>
          <leafValues>
            4.0165248513221741e-01 -9.7421753406524658e-01</leafValues></_>
        <_>
          <internalNodes>
            0 -1 40 2.4341527023352683e-04</internalNodes>
          <leafValues>
            2.9686337709426880e-01 -8.6996769905090332e-01</leafValues></_>
        <_>
          <internalNodes>
            0 -1 0 -1.9075695308856666e-04</internalNodes>
          <leafValues>
            2.8061527013778687e-01 -9.5190399885177612e-01</leafValues></_></weakClassifiers></_>
    <!-- stage 3 -->
    <_>
      <maxWeakCount>4</maxWeakCount>
      <stageThreshold>-7.4355727434158325e-01</stageThreshold>
      <weakClassifiers>
        <_>
          <internalNodes>
            0 -1 48 -7.0357650518417358e-02</internalNodes>
          <leafValues>
            8.6301368474960327e-01 -7.3529410362243652e-01</leafValues></_>
        <_>
          <internalNodes>
            0 -1 33 2.0062955096364021e-02</internalNodes>
          <leafValues>
            -8.5792368650436401e-01 4.9607229232788086e-01</leafValues></_>
        <_>
          <internalNodes>
            0 -1 14 -1.0453084856271744e-01</internalNodes>
          <leafValues>
            4.5422556996345520e-01 -8.8028246164321899e-01</leafValues></_>
        <_>
          <internalNodes>
            0 -1 2 7.1872287662699819e-05</internalNodes>
          <leafValues>
            -9.1610592603683472e-01 3.9543500542640686e-01</leafValues></_></weakClassifiers></_>
    <!-- stage 4 -->
    <_>
      <maxWeakCount>4</maxWeakCount>
      <stageThreshold>-9.7452473640441895e-01</stageThreshold>
      <weakClassifiers>
        <_>
          <internalNodes>
            0 -1 45 -6.1039373278617859e-02</internalNodes>
          <leafValues>
            6.9767439365386963e-01 -7.5535166263580322e-01</leafValues></_>
        <_>
          <internalNodes>
            0 -1 29 3.1232686713337898e-02</internalNodes>
          <leafValues>
            -7.4917966127395630e-01 4.3864625692367554e-01</leafValues></_>
        <_>
          <internalNodes>
            0 -1 16 -4.2149884393438697e-04</internalNodes>
          <leafValues>
            -8.7875217199325562e-01 3.0834251642227173e-01</leafValues></_>
        <_>
          <internalNodes>
            0 -1 10 4.3629499850794673e-04</internalNodes>
          <leafValues>
            2.2166411578655243e-01 -1.</leafValues></_></weakClassifiers></_>
    <!-- stage 5 -->
    <_>
      <maxWeakCount>5</maxWeakCount>
      <stageThreshold>-1.1071889400482178e+00</stageThreshold>
      <weakClassifiers>
        <_>
          <internalNodes>
            0 -1 47 3.1115237623453140e-02</internalNodes>
          <leafValues>
            -7.5075989961624146e-01 7.1428573131561279e-01</leafValues></_>
        <_>
          <internalNodes>
            0 -1 12 -2.4349782615900040e-02</internalNodes>
          <leafValues>
            6.9412291049957275e-01 -5.2038890123367310e-01</leafValues></_>
        <_>
          <internalNodes>
            0 -1 6 -2.9565813019871712e-03</internalNodes>
          <leafValues>
            -1. 3.3343181014060974e-01</leafValues></_>
        <_>
          <internalNodes>
            0 -1 37 9.0408995747566223e-03</internalNodes>
          <leafValues>
            -4.6725443005561829e-01 7.0344072580337524e-01</leafValues></_>
        <_>
          <internalNodes>
            0 -1 28 -1.5487902564927936e-03</internalNodes>
          <leafValues>
            -8.7291270494461060e-01 3.7769076228141785e-01</leafValues></_></weakClassifiers></_>
    <!-- stage 6 -->
    <_>
      <maxWeakCount>3</maxWeakCount>
      <stageThreshold>-1.1327290534973145e+00</stageThreshold>
      <weakClassifiers>
        <_>
          <internalNodes>
            0 -1 22 4.5189484953880310e-02</internalNodes>
          <leafValues>
            -9.1338580846786499e-01 2.8301885724067688e-01</leafValues></_>
        <_>
          <internalNodes>
            0 -1 49 3.7625286728143692e-02</internalNodes>
          <leafValues>
            -5.3678220510482788e-01 7.5083470344543457e-01</leafValues></_>
        <_>
          <internalNodes>
            0 -1 10 -4.8305949894711375e-04</internalNodes>
          <leafValues>
            -1. 3.1743890047073364e-01</leafValues></_></weakClassifiers></_>
    <!-- stage 7 -->
    <_>
      <maxWeakCount>3</maxWeakCount>
      <stageThreshold>-1.1055767536163330e+00</stageThreshold>
      <weakClassifiers>
        <_>
          <internalNodes>
            0 -1 43 -2.0944143831729889e-01</internalNodes>
          <leafValues>
            8.3098590373992920e-01 -7.1929824352264404e-01</leafValues></_>
        <_>
          <internalNodes>
            0 -1 27 -8.2406565546989441e-02</internalNodes>
          <leafValues>
            5.7569557428359985e-01 -7.2281730175018311e-01</leafValues></_>
        <_>
          <internalNodes>
            0 -1 7 1.2258796487003565e-03</internalNodes>
          <leafValues>
            3.3653882145881653e-01 -1.</leafValues></_></weakClassifiers></_>
    <!-- stage 8 -->
    <_>
      <maxWeakCount>5</maxWeakCount>
      <stageThreshold>-1.1005004644393921e+00</stageThreshold>
      <weakClassifiers>
        <_>
          <internalNodes>
            0 -1 50 -3.1633958220481873e-02</internalNodes>
          <leafValues>
            8.1081080436706543e-01 -7.2861355543136597e-01</leafValues></_>
        <_>
          <internalNodes>
            0 -1 32 -8.8693171739578247e-02</internalNodes>
          <leafValues>
            6.2504416704177856e-01 -5.2121633291244507e-01</leafValues></_>
        <_>
          <internalNodes>
            0 -1 1 -5.3753179963678122e-04</internalNodes>
          <leafValues>
            -9.6450787782669067e-01 3.2570090889930725e-01</leafValues></_>
        <_>
          <internalNodes>
            0 -1 42 4.0820175781846046e-03</internalNodes>
          <leafValues>
            -4.8882660269737244e-01 6.1352801322937012e-01</leafValues></_>
        <_>
          <internalNodes>
            0 -1 35 -5.6176539510488510e-03</internalNodes>
          <leafValues>
            -1. 3.1245514750480652e-01</leafValues></_></weakClassifiers></_>
    <!-- stage 9 -->
    <_>
      <maxWeakCount>5</maxWeakCount>
      <stageThreshold>-1.1970877647399902e+00</stageThreshold>
      <weakClassifiers>
        <_>
          <internalNodes>
            0 -1 41 -1.3872288167476654e-01</internalNodes>
          <leafValues>
            6.0000002384185791e-01 -6.8639051914215088e-01</leafValues></_>
        <_>
          <internalNodes>
            0 -1 39 -1.1511837691068649e-01</internalNodes>
          <leafValues>
            7.2880655527114868e-01 -4.8439475893974304e-01</leafValues></_>
        <_>
          <internalNodes>
            0 -1 3 -8.4917247295379639e-02</internalNodes>
          <leafValues>
            -1. 3.0917987227439880e-01</leafValues></_>
        <_>
          <internalNodes>
            0 -1 17 2.0377047359943390e-02</internalNodes>
          <leafValues>
            -6.3038533926010132e-01 4.1382202506065369e-01</leafValues></_>
        <_>
          <internalNodes>
            0 -1 38 -3.1038285233080387e-03</internalNodes>
          <leafValues>
            -1. 2.9490298032760620e-01</leafValues></_></weakClassifiers></_>
    <!-- stage 10 -->
    <_>
      <maxWeakCount>4</maxWeakCount>
      <stageThreshold>-1.9919379949569702e+00</stageThreshold>
      <weakClassifiers>
        <_>
          <internalNodes>
            0 -1 9 -1.0066333413124084e-01</internalNodes>
          <leafValues>
            3.4666666388511658e-01 -9.0874522924423218e-01</leafValues></_>
        <_>
          <internalNodes>
            0 -1 34 8.4275957196950912e-03</internalNodes>
          <leafValues>
            -6.7106318473815918e-01 5.1666873693466187e-01</leafValues></_>
        <_>
          <internalNodes>
            0 -1 23 3.2251281663775444e-03</internalNodes>
          <leafValues>
            3.2775452733039856e-01 -9.4539129734039307e-01</leafValues></_>
        <_>
          <internalNodes>
            0 -1 26 1.2028473429381847e-03</internalNodes>
          <leafValues>
            -7.3988413810729980e-01 3.3694526553153992e-01</leafValues></_></weakClassifiers></_>
    <!-- stage 11 -->
    <_>
      <maxWeakCount>3</maxWeakCount>
      <stageThreshold>-1.1638854742050171e+00</stageThreshold>
      <weakClassifiers>
        <_>
          <internalNodes>
            0 -1 44 -1.4102609828114510e-02</internalNodes>
          <leafValues>
            5.8241760730743408e-01 -7.4534159898757935e-01</leafValues></_>
        <_>
          <internalNodes>
            0 -1 8 -3.7702873349189758e-02</internalNodes>
          <leafValues>
            3.4450730681419373e-01 -8.5736328363418579e-01</leafValues></_>
        <_>
          <internalNodes>
            0 -1 20 1.1604577302932739e-02</internalNodes>
          <leafValues>
            -6.9704949855804443e-01 4.3881940841674805e-01</leafValues></_></weakClassifiers></_>
    <!-- stage 12 -->
    <_>
      <maxWeakCount>4</maxWeakCount>
      <stageThreshold>-5.2474004030227661e-01</stageThreshold>
      <weakClassifiers>
        <_>
          <internalNodes>
            0 -1 46 -8.5574612021446228e-03</internalNodes>
          <leafValues>
            6.9696968793869019e-01 -6.7146974802017212e-01</leafValues></_>
        <_>
          <internalNodes>
            0 -1 18 -2.8204590082168579e-01</internalNodes>
          <leafValues>
            6.4418536424636841e-01 -4.3660297989845276e-01</leafValues></_>
        <_>
          <internalNodes>
            0 -1 4 -9.3157831579446793e-03</internalNodes>
          <leafValues>
            -1. 2.4348759651184082e-01</leafValues></_>
        <_>
          <internalNodes>
            0 -1 24 4.6112737618386745e-04</internalNodes>
          <leafValues>
            -6.5937614440917969e-01 3.3984509110450745e-01</leafValues></_></weakClassifiers></_>
    <!-- stage 13 -->
    <_>
      <maxWeakCount>2</maxWeakCount>
      <stageThreshold>-6.0867029428482056e-01</stageThreshold>
      <weakClassifiers>
        <_>
          <internalNodes>
            0 -1 11 -3.1330309808254242e-02</internalNodes>
          <leafValues>
            1.9205297529697418e-01 -8.2442748546600342e-01</leafValues></_>
        <_>
          <internalNodes>
            0 -1 5 1.6614612191915512e-02</internalNodes>
          <leafValues>
            2.1575716137886047e-01 -1.</leafValues></_></weakClassifiers></_></stages>
  <features>
    <_>
      <rects>
        <_>
          0 0 1 16 -1.</_>
        <_>
          0 8 1 8 2.</_></rects>
      <tilted>0</tilted></_>
    <_>
      <rects>
        <_>
          0 0 3 9 -1.</_>
        <_>
          1 0 1 9 3.</_></rects>
      <tilted>0</tilted></_>
    <_>
      <rects>
        <_>
          0 0 2 11 -1.</_>
        <_>
          1 0 1 11 2.</_></rects>
      <tilted>0</tilted></_>
    <_>
      <rects>
        <_>
          0 0 4 24 -1.</_>
        <_>
          0 12 4 12 2.</_></rects>
      <tilted>0</tilted></_>
    <_>
      <rects>
        <_>
          0 0 20 3 -1.</_>
        <_>
          10 0 10 3 2.</_></rects>
      <tilted>0</tilted></_>
    <_>
      <rects>
        <_>
          0 0 20 4 -1.</_>
        <_>
          10 0 10 4 2.</_></rects>
      <tilted>0</tilted></_>
    <_>
      <rects>
        <_>
          0 1 1 10 -1.</_>
        <_>
          0 6 1 5 2.</_></rects>
      <tilted>0</tilted></_>
    <_>
      <rects>
        <_>
          0 1 3 7 -1.</_>
        <_>
          1 1 1 7 3.</_></rects>
      <tilted>0</tilted></_>
    <_>
      <rects>
        <_>
          0 1 6 18 -1.</_>
        <_>
          0 10 6 9 2.</_></rects>
      <tilted>0</tilted></_>
    <_>
      <rects>
        <_>
          0 4 10 16 -1.</_>
        <_>
          0 12 10 8 2.</_></rects>
      <tilted>0</tilted></_>
    <_>
      <rects>
        <_>
          0 6 3 1 -1.</_>
        <_>
          1 6 1 1 3.</_></rects>
      <tilted>0</tilted></_>
    <_>
      <rects>
        <_>
          0 13 8 11 -1.</_>
        <_>
          4 13 4 11 2.</_></rects>
      <tilted>0</tilted></_>
    <_>
      <rects>
        <_>
          0 14 14 6 -1.</_>
        <_>
          0 16 14 2 3.</_></rects>
      <tilted>0</tilted></_>
    <_>
      <rects>
        <_>
          1 0 14 12 -1.</_>
        <_>
          8 0 7 12 2.</_></rects>
      <tilted>0</tilted></_>
    <_>
      <rects>
        <_>
          1 10 20 14 -1.</_>
        <_>
          11 10 10 14 2.</_></rects>
      <tilted>0</tilted></_>
    <_>
      <rects>
        <_>
          2 0 20 5 -1.</_>
        <_>
          12 0 10 5 2.</_></rects>
      <tilted>0</tilted></_>
    <_>
      <rects>
        <_>
          2 2 4 4 -1.</_>
        <_>
          4 2 2 4 2.</_></rects>
      <tilted>0</tilted></_>
    <_>
      <rects>
        <_>
          2 2 21 6 -1.</_>
        <_>
          9 2 7 6 3.</_></rects>
      <tilted>0</tilted></_>
    <_>
      <rects>
        <_>
          2 10 18 12 -1.</_>
        <_>
          2 16 18 6 2.</_></rects>
      <tilted>0</tilted></_>
    <_>
      <rects>
        <_>
          2 12 19 8 -1.</_>
        <_>
          2 16 19 4 2.</_></rects>
      <tilted>0</tilted></_>
    <_>
      <rects>
        <_>
          4 4 18 4 -1.</_>
        <_>
          10 4 6 4 3.</_></rects>
      <tilted>0</tilted></_>
    <_>
      <rects>
        <_>
          4 8 16 12 -1.</_>
        <_>
          4 14 16 6 2.</_></rects>
      <tilted>0</tilted></_>
    <_>
      <rects>
        <_>
          5 2 7 18 -1.</_>
        <_>
          5 8 7 6 3.</_></rects>
      <tilted>0</tilted></_>
    <_>
      <rects>
        <_>
          6 1 18 1 -1.</_>
        <_>
          15 1 9 1 2.</_></rects>
      <tilted>0</tilted></_>
    <_>
      <rects>
        <_>
          6 3 5 3 -1.</_>
        <_>
          6 4 5 1 3.</_></rects>
      <tilted>0</tilted></_>
    <_>
      <rects>
        <_>
          6 3 5 8 -1.</_>
        <_>
          6 7 5 4 2.</_></rects>
      <tilted>0</tilted></_>
    <_>
      <rects>
        <_>
          6 5 12 6 -1.</_>
        <_>
          10 5 4 6 3.</_></rects>
      <tilted>0</tilted></_>
    <_>
      <rects>
        <_>
          6 10 9 10 -1.</_>
        <_>
          6 15 9 5 2.</_></rects>
      <tilted>0</tilted></_>
    <_>
      <rects>
        <_>
          8 1 6 10 -1.</_>
        <_>
          8 1 3 5 2.</_>
        <_>
          11 6 3 5 2.</_></rects>
      <tilted>0</tilted></_>
    <_>
      <rects>
        <_>
          9 1 11 12 -1.</_>
        <_>
          9 5 11 4 3.</_></rects>
      <tilted>0</tilted></_>
    <_>
      <rects>
        <_>
          9 8 11 12 -1.</_>
        <_>
          9 14 11 6 2.</_></rects>
      <tilted>0</tilted></_>
    <_>
      <rects>
        <_>
          9 9 14 15 -1.</_>
        <_>
          9 14 14 5 3.</_></rects>
      <tilted>0</tilted></_>
    <_>
      <rects>
        <_>
          9 12 10 8 -1.</_>
        <_>
          9 16 10 4 2.</_></rects>
      <tilted>0</tilted></_>
    <_>
      <rects>
        <_>
          10 7 12 10 -1.</_>
        <_>
          14 7 4 10 3.</_></rects>
      <tilted>0</tilted></_>
    <_>
      <rects>
        <_>
          10 18 6 6 -1.</_>
        <_>
          10 20 6 2 3.</_></rects>
      <tilted>0</tilted></_>
    <_>
      <rects>
        <_>
          10 23 14 1 -1.</_>
        <_>
          17 23 7 1 2.</_></rects>
      <tilted>0</tilted></_>
    <_>
      <rects>
        <_>
          12 7 12 8 -1.</_>
        <_>
          12 11 12 4 2.</_></rects>
      <tilted>0</tilted></_>
    <_>
      <rects>
        <_>
          12 13 4 6 -1.</_>
        <_>
          12 15 4 2 3.</_></rects>
      <tilted>0</tilted></_>
    <_>
      <rects>
        <_>
          14 0 4 8 -1.</_>
        <_>
          16 0 2 8 2.</_></rects>
      <tilted>0</tilted></_>
    <_>
      <rects>
        <_>
          14 10 9 10 -1.</_>
        <_>
          14 15 9 5 2.</_></rects>
      <tilted>0</tilted></_>
    <_>
      <rects>
        <_>
          15 2 2 10 -1.</_>
        <_>
          16 2 1 10 2.</_></rects>
      <tilted>0</tilted></_>
    <_>
      <rects>
        <_>
          16 1 4 18 -1.</_>
        <_>
          16 10 4 9 2.</_></rects>
      <tilted>0</tilted></_>
    <_>
      <rects>
        <_>
          16 17 2 6 -1.</_>
        <_>
          16 19 2 2 3.</_></rects>
      <tilted>0</tilted></_>
    <_>
      <rects>
        <_>
          17 6 6 18 -1.</_>
        <_>
          17 12 6 6 3.</_></rects>
      <tilted>0</tilted></_>
    <_>
      <rects>
        <_>
          18 0 6 3 -1.</_>
        <_>
          21 0 3 3 2.</_></rects>
      <tilted>0</tilted></_>
    <_>
      <rects>
        <_>
          18 0 6 15 -1.</_>
        <_>
          21 0 3 15 2.</_></rects>
      <tilted>0</tilted></_>
    <_>
      <rects>
        <_>
          20 0 4 2 -1.</_>
        <_>
          22 0 2 2 2.</_></rects>
      <tilted>0</tilted></_>
    <_>
      <rects>
        <_>
          20 3 4 20 -1.</_>
        <_>
          20 3 2 10 2.</_>
        <_>
          22 13 2 10 2.</_></rects>
      <tilted>0</tilted></_>
    <_>
      <rects>
        <_>
          20 7 3 15 -1.</_>
        <_>
          20 12 3 5 3.</_></rects>
      <tilted>0</tilted></_>
    <_>
      <rects>
        <_>
          20 13 3 8 -1.</_>
        <_>
          20 17 3 4 2.</_></rects>
      <tilted>0</tilted></_>
    <_>
      <rects>
        <_>
          23 4 1 18 -1.</_>
        <_>
          23 10 1 6 3.</_></rects>
      <tilted>0</tilted></_></features></cascade>
</opencv_storage>
